<?xml version="1.0"?>
<opencv_storage>
<cascade>
  <stageType>BOOST</stageType>
  <featureType>LBP</featureType>
  <height>24</height>
  <width>24</width>
  <stageParams>
    <boostType>GAB</boostType>
    <minHitRate>9.9900001287460327e-01</minHitRate>
    <maxFalseAlarm>5.0000000000000000e-01</maxFalseAlarm>
    <weightTrimRate>9.4999999999999996e-01</weightTrimRate>
    <maxDepth>1</maxDepth>
    <maxWeakCount>100</maxWeakCount></stageParams>
  <featureParams>
    <maxCatCount>256</maxCatCount>
    <featSize>1</featSize></featureParams>
  <stageNum>12</stageNum>
  <stages>
    <!-- stage 0 -->
    <_>
      <maxWeakCount>4</maxWeakCount>
      <stageThreshold>-2.1539213657379150e+00</stageThreshold>
      <weakClassifiers>
        <_>
          <internalNodes>
            0 -1 4 -3801140 -2049 1392558478 -539495489 -70788145
            -71071764 -15991825 -1</internalNodes>
          <leafValues>
            -9.4213008880615234e-01 1.2418300658464432e-01</leafValues></_>
        <_>
          <internalNodes>
            0 -1 7 -3219730 -3216694 -3878486 1460522994 -75761682
            -543958561 -4195413 -81</internalNodes>
          <leafValues>
            -8.5450530052185059e-01 2.0976497232913971e-01</leafValues></_>
        <_>
          <internalNodes>
            0 -1 3 -634407264 -10494533 286075406 2008518118 -3686528
            -6555251 2067512302 2002771935</internalNodes>
          <leafValues>
            -8.0417126417160034e-01 3.2832303643226624e-01</leafValues></_>
        <_>
          <internalNodes>
            0 -1 17 2147450879 -1 -16777489 -84492354 -4196737
            2004875135 -419 -159907841</internalNodes>
          <leafValues>
            -6.1738502979278564e-01 5.4563027620315552e-01</leafValues></_></weakClassifiers></_>
    <!-- stage 1 -->
    <_>
      <maxWeakCount>6</maxWeakCount>
      <stageThreshold>-2.1439168453216553e+00</stageThreshold>
      <weakClassifiers>
        <_>
          <internalNodes>
            0 -1 30 -268435457 -286261265 -1 -1 -1 -1025 -2097153 -1025</internalNodes>
          <leafValues>
            -9.1464751958847046e-01 1.5196599066257477e-01</leafValues></_>
        <_>
          <internalNodes>
            0 -1 5 -537985026 -2097162 2114781148 -35790849 -71305218
            -84046932 -817496065 -6291457</internalNodes>
          <leafValues>
            -7.7737879753112793e-01 3.4288516640663147e-01</leafValues></_>
        <_>
          <internalNodes>
            0 -1 71 1069514751 -1073741825 -536887297 -337838081
            -268468227 -1 -32907 -318963724</internalNodes>
          <leafValues>
            -7.2667700052261353e-01 4.5654186606407166e-01</leafValues></_>
        <_>
          <internalNodes>
            0 -1 16 -50364801 -16842753 -1090618690 -1157693458 -43402
            -67637377 -557196 -294324363</internalNodes>
          <leafValues>
            -7.1418988704681396e-01 4.4871282577514648e-01</leafValues></_>
        <_>
          <internalNodes>
            0 -1 94 -32781 602931199 -30 -328204290 -137 1459616751
            -8336 -184615457</internalNodes>
          <leafValues>
            -6.2732374668121338e-01 5.2216154336929321e-01</leafValues></_>
        <_>
          <internalNodes>
            0 -1 63 2138341365 1073510397 2147221373 -1342242819
            2096922485 -1 -302153859 -51089612</internalNodes>
          <leafValues>
            -7.1640402078628540e-01 4.7837641835212708e-01</leafValues></_></weakClassifiers></_>
    <!-- stage 2 -->
    <_>
      <maxWeakCount>6</maxWeakCount>
      <stageThreshold>-2.2197480201721191e+00</stageThreshold>
      <weakClassifiers>
        <_>
          <internalNodes>
            0 -1 90 -1 -1 -16777217 -33 -186 -129 -257 -1</internalNodes>
          <leafValues>
            -8.9972633123397827e-01 2.3848238587379456e-01</leafValues></_>
        <_>
          <internalNodes>
            0 -1 2 -254873906 -178915585 1233178010 1461178319 -1048609
            -2295297 -4194305 -536870917</internalNodes>
          <leafValues>
            -7.9631394147872925e-01 2.8972578048706055e-01</leafValues></_>
        <_>
          <internalNodes>
            0 -1 33 -65793 -16795905 -16842753 -18153474 -604021130
            -8437898 -8454281 -25886858</internalNodes>
          <leafValues>
            -6.9011920690536499e-01 4.3451222777366638e-01</leafValues></_>
        <_>
          <internalNodes>
            0 -1 93 -1073741901 -1363149827 -269549582 -360712193 -393
            -268959873 -532880 -455223311</internalNodes>
          <leafValues>
            -6.7243713140487671e-01 4.4851642847061157e-01</leafValues></_>
        <_>
          <internalNodes>
            0 -1 61 -539496576 -9220 -425698432 -132140 -472908312
            -6424852 922906378 2134376378</internalNodes>
          <leafValues>
            -6.6541367769241333e-01 4.4688805937767029e-01</leafValues></_>
        <_>
          <internalNodes>
            0 -1 52 536838127 -1392574536 -1375752273 -328269932
            2113896311 2143289343 -1310860 -453705868</internalNodes>
          <leafValues>
            -7.4132263660430908e-01 4.3432214856147766e-01</leafValues></_></weakClassifiers></_>
    <!-- stage 3 -->
    <_>
      <maxWeakCount>7</maxWeakCount>
      <stageThreshold>-2.7683660984039307e+00</stageThreshold>
      <weakClassifiers>
        <_>
          <internalNodes>
            0 -1 57 -393449 -10495489 -33554433 -4516353 -72613889
            -21793 -73408513 -1281</internalNodes>
          <leafValues>
            -8.8860857486724854e-01 1.9277107715606689e-01</leafValues></_>
        <_>
          <internalNodes>
            0 -1 1 -487657746 -536900114 -209604753 369037231 -5259269
            -69215746 1543503839 2147462143</internalNodes>
          <leafValues>
            -8.1518524885177612e-01 1.7437091469764709e-01</leafValues></_>
        <_>
          <internalNodes>
            0 -1 32 -198660 -78840616 -267074084 -539124282 -604045380
            -20643908 -3350598 1264185226</internalNodes>
          <leafValues>
            -7.0801889896392822e-01 3.1412073969841003e-01</leafValues></_>
        <_>
          <internalNodes>
            0 -1 81 1073740799 788479998 -3 -268959745 503245823
            -1895825410 -805310465 -855654401</internalNodes>
          <leafValues>
            -4.8363152146339417e-01 5.5827665328979492e-01</leafValues></_>
        <_>
          <internalNodes>
            0 -1 10 -355545462 -219222162 -286333260 636473130
            -570564642 -268583937 -16789508 1325391787</internalNodes>
          <leafValues>
            -6.8795603513717651e-01 3.5951086878776550e-01</leafValues></_>
        <_>
          <internalNodes>
            0 -1 37 -8421525 -33793 -33620353 1048510453 -8425413
            -75542723 -1342783658 -26157196</internalNodes>
          <leafValues>
            -6.0696113109588623e-01 4.0799650549888611e-01</leafValues></_>
        <_>
          <internalNodes>
            0 -1 85 805289843 -1547960334 -536887344 -805372444
            -1082132491 486276531 1440626036 -839001097</internalNodes>
          <leafValues>
            -5.9069859981536865e-01 3.7452849745750427e-01</leafValues></_></weakClassifiers></_>
    <!-- stage 4 -->
    <_>
      <maxWeakCount>8</maxWeakCount>
      <stageThreshold>-2.3491549491882324e+00</stageThreshold>
      <weakClassifiers>
        <_>
          <internalNodes>
            0 -1 75 -233 -129 -272630785 -1 -17441 -16385 -17040401
            -1057</internalNodes>
          <leafValues>
            -8.9905238151550293e-01 -1.7989417538046837e-02</leafValues></_>
        <_>
          <internalNodes>
            0 -1 84 -241 -525313 -2097437 -67649537 -33818108 -270337
            -526353 -201850881</internalNodes>
          <leafValues>
            -7.2666817903518677e-01 2.7474436163902283e-01</leafValues></_>
        <_>
          <internalNodes>
            0 -1 20 1481345664 2006965226 288427933 528420769 -805470276
            -545313803 -138445057 1543487487</internalNodes>
          <leafValues>
            -6.9413989782333374e-01 2.9825323820114136e-01</leafValues></_>
        <_>
          <internalNodes>
            0 -1 23 -269488193 -286331730 -285327489 -285297210
            2145123327 -1082130945 1996478435 -991953419</internalNodes>
          <leafValues>
            -5.6630051136016846e-01 3.9824536442756653e-01</leafValues></_>
        <_>
          <internalNodes>
            0 -1 43 1978728144 -716833892 1924632256 -17327133
            -724247088 2099097316 -1115299922 923106414</internalNodes>
          <leafValues>
            -7.1703898906707764e-01 3.1099081039428711e-01</leafValues></_>
        <_>
          <internalNodes>
            0 -1 56 1878751091 -138528769 -536871425 -16875521
            -1074888835 -75781 -151109645 -71663748</internalNodes>
          <leafValues>
            -5.2649486064910889e-01 4.4758281111717224e-01</leafValues></_>
        <_>
          <internalNodes>
            0 -1 53 936771321 194569661 -2181353 -1077938859 1608272380
            2135673840 -83985540 654278519</internalNodes>
          <leafValues>
            -5.3540402650833130e-01 4.2264929413795471e-01</leafValues></_>
        <_>
          <internalNodes>
            0 -1 25 1795157759 -83920161 -291504514 -1158482306
            1610326623 1040150315 -365980 -681181321</internalNodes>
          <leafValues>
            -5.8073300123214722e-01 3.9021393656730652e-01</leafValues></_></weakClassifiers></_>
    <!-- stage 5 -->
    <_>
      <maxWeakCount>7</maxWeakCount>
      <stageThreshold>-2.8140642642974854e+00</stageThreshold>
      <weakClassifiers>
        <_>
          <internalNodes>
            0 -1 19 -353439745 -132609 -11274241 -2106377 -1145111553
            -4195329 -4194305 -257</internalNodes>
          <leafValues>
            -8.8755649328231812e-01 -3.1004301001651328e-17</leafValues></_>
        <_>
          <internalNodes>
            0 -1 86 -1 -1107298309 -536928899 -570556419 -268698625
            -1998586883 1610554861 -838860801</internalNodes>
          <leafValues>
            -6.3831937313079834e-01 3.6700877547264099e-01</leafValues></_>
        <_>
          <internalNodes>
            0 -1 60 -18094720 -8424467 2143269520 -537606 2133778336
            2147483380 859646350 2134900719</internalNodes>
          <leafValues>
            -6.8877279758453369e-01 3.0942955613136292e-01</leafValues></_>
        <_>
          <internalNodes>
            0 -1 13 -285233681 -1896874002 2143287848 -17891340 -33153
            2113928166 -299193 -218628139</internalNodes>
          <leafValues>
            -5.9207195043563843e-01 3.5862314701080322e-01</leafValues></_>
        <_>
          <internalNodes>
            0 -1 72 -40108128 -9411 -13845120 -5518416 -327740 -8388611
            -1397755992 909377527</internalNodes>
          <leafValues>
            -6.2548565864562988e-01 3.2979452610015869e-01</leafValues></_>
        <_>
          <internalNodes>
            0 -1 9 -823202969 -1494814742 1541132287 -420524033
            1868558303 -2080637973 1605713279 -989990475</internalNodes>
          <leafValues>
            -6.2334012985229492e-01 3.3051383495330811e-01</leafValues></_>
        <_>
          <internalNodes>
            0 -1 79 805011455 -1348545542 1341914107 -1342177284
            1904180213 1106247167 2055042805 218036212</internalNodes>
          <leafValues>
            -7.3089718818664551e-01 2.8620201349258423e-01</leafValues></_></weakClassifiers></_>
    <!-- stage 6 -->
    <_>
      <maxWeakCount>8</maxWeakCount>
      <stageThreshold>-2.3047888278961182e+00</stageThreshold>
      <weakClassifiers>
        <_>
          <internalNodes>
            0 -1 8 -286265361 -137381917 -739509809 -2097409 -271581185
            -273964053 -271582225 -9233</internalNodes>
          <leafValues>
            -8.8278031349182129e-01 -4.8469386994838715e-02</leafValues></_>
        <_>
          <internalNodes>
            0 -1 27 -10485761 -4358849 -513 -4342913 -2461569 -12879017
            -4225 -8913061</internalNodes>
          <leafValues>
            -6.5591400861740112e-01 3.1368291378021240e-01</leafValues></_>
        <_>
          <internalNodes>
            0 -1 89 -134217953 -2367489 -25428513 -262723 -134226428
            -613450889 -17367051 -227278913</internalNodes>
          <leafValues>
            -5.1884377002716064e-01 4.3259781599044800e-01</leafValues></_>
        <_>
          <internalNodes>
            0 -1 36 -1508100 2121661182 -606701954 -5378086 -841694920
            1666501078 -157495490 1405964255</internalNodes>
          <leafValues>
            -5.0894844532012939e-01 3.9819934964179993e-01</leafValues></_>
        <_>
          <internalNodes>
            0 -1 6 -320147833 -1897484886 -268702100 -1351638022
            -403734529 -5185 2124382174 1693450223</internalNodes>
          <leafValues>
            -6.7888432741165161e-01 2.9082632064819336e-01</leafValues></_>
        <_>
          <internalNodes>
            0 -1 80 1073741817 -1383399560 -176161289 -272720388
            -1140850691 -1409320067 -17862147 -839909380</internalNodes>
          <leafValues>
            -4.5701846480369568e-01 4.4954082369804382e-01</leafValues></_>
        <_>
          <internalNodes>
            0 -1 76 -268694507 -1075937289 -1073747985 -1409318916
            -17081643 -558081 -1093370784 795369301</internalNodes>
          <leafValues>
            -7.0562273263931274e-01 2.8524342179298401e-01</leafValues></_>
        <_>
          <internalNodes>
            0 -1 39 1022885719 754909151 -635183361 -1895893154
            -72122545 -1628448769 -12648652 -664732812</internalNodes>
          <leafValues>
            -7.6050621271133423e-01 2.2636465728282928e-01</leafValues></_></weakClassifiers></_>
    <!-- stage 7 -->
    <_>
      <maxWeakCount>9</maxWeakCount>
      <stageThreshold>-2.5083010196685791e+00</stageThreshold>
      <weakClassifiers>
        <_>
          <internalNodes>
            0 -1 41 -1078198273 -8707 -10878977 -1 -19922945 -7618817
            -4456961 -1</internalNodes>
          <leafValues>
            -8.8633638620376587e-01 -1.6283924877643585e-01</leafValues></_>
        <_>
          <internalNodes>
            0 -1 12 -268439569 -286593630 -7604545 -542766 -319039489
            -270556689 -35167377 -169869357</internalNodes>
          <leafValues>
            -6.6782295703887939e-01 2.2171834111213684e-01</leafValues></_>
        <_>
          <internalNodes>
            0 -1 95 -33686621 -1569719381 -511708238 -890243118
            -612368393 243051239 -33637392 -991955009</internalNodes>
          <leafValues>
            -5.4481410980224609e-01 3.4316107630729675e-01</leafValues></_>
        <_>
          <internalNodes>
            0 -1 31 -33554698 -73465880 -44237752 -131860 -646132260
            -572752900 -17899688 486497883</internalNodes>
          <leafValues>
            -5.5990111827850342e-01 3.6110520362854004e-01</leafValues></_>
        <_>
          <internalNodes>
            0 -1 18 -1074266153 -299011 -302006275 -1073741875
            2147434322 2138537847 2079743839 -8390794</internalNodes>
          <leafValues>
            -4.2035728693008423e-01 4.6493378281593323e-01</leafValues></_>
        <_>
          <internalNodes>
            0 -1 21 1789914967 -1224956182 -675817505 -1131832 796622575
            -839913217 -305270817 -858938251</internalNodes>
          <leafValues>
            -4.3074727058410645e-01 4.4265285134315491e-01</leafValues></_>
        <_>
          <internalNodes>
            0 -1 22 -20123908 1604306247 -509325391 894502785 1609281501
            1532672510 -12597265 1409269470</internalNodes>
          <leafValues>
            -4.7611975669860840e-01 4.0474867820739746e-01</leafValues></_>
        <_>
          <internalNodes>
            0 -1 64 500170683 247257595 -814743557 784334847 2147319671
            -579 -1075085963 -865796236</internalNodes>
          <leafValues>
            -6.4926755428314209e-01 2.8896254301071167e-01</leafValues></_>
        <_>
          <internalNodes>
            0 -1 73 1045034785 -4204653 -108486864 -1212190004
            -1221922819 -42081835 -1074270472 133659571</internalNodes>
          <leafValues>
            -5.3131949901580811e-01 3.5358920693397522e-01</leafValues></_></weakClassifiers></_>
    <!-- stage 8 -->
    <_>
      <maxWeakCount>10</maxWeakCount>
      <stageThreshold>-2.4066689014434814e+00</stageThreshold>
      <weakClassifiers>
        <_>
          <internalNodes>
            0 -1 41 -1078198273 -2097153 -42729473 -2049 -83886081
            -1050229 -4718593 -1</internalNodes>
          <leafValues>
            -8.8573139905929565e-01 -1.5621678531169891e-01</leafValues></_>
        <_>
          <internalNodes>
            0 -1 50 -725221393 823525109 -266630419 -168297601 -57162257
            525845213 -1499082753 671047679</internalNodes>
          <leafValues>
            -6.4539146423339844e-01 2.5393322110176086e-01</leafValues></_>
        <_>
          <internalNodes>
            0 -1 88 736860159 -1430530689 1607187389 -419504389
            -2014384129 213646079 -268454145 -1929392645</internalNodes>
          <leafValues>
            -5.2257138490676880e-01 3.7433862686157227e-01</leafValues></_>
        <_>
          <internalNodes>
            0 -1 82 -524529 2134900735 -1077944341 -67240611 -25167872
            -69505921 -150996289 -432275597</internalNodes>
          <leafValues>
            -4.6279758214950562e-01 4.3565770983695984e-01</leafValues></_>
        <_>
          <internalNodes>
            0 -1 45 -1074004076 -539572392 -549785808 -272634900
            1522438096 1595768148 1858047994 1062033402</internalNodes>
          <leafValues>
            -5.2835768461227417e-01 3.5378080606460571e-01</leafValues></_>
        <_>
          <internalNodes>
            0 -1 14 -16781617 -290456721 -57213330 -25239572 -5555
            2006891517 2080374628 -167903241</internalNodes>
          <leafValues>
            -4.7320485115051270e-01 3.8458275794982910e-01</leafValues></_>
        <_>
          <internalNodes>
            0 -1 46 1853757753 -1610974209 828103415 -1073843713
            -19633281 -4290117 -100728866 -12959756</internalNodes>
          <leafValues>
            -5.0078892707824707e-01 3.3808788657188416e-01</leafValues></_>
        <_>
          <internalNodes>
            0 -1 65 2102521009 -1114048136 -176394720 787406244
            2105301757 -15729153 -16975012 616398838</internalNodes>
          <leafValues>
            -6.0892081260681152e-01 3.0221968889236450e-01</leafValues></_>
        <_>
          <internalNodes>
            0 -1 28 -2103268768 229572090 -136904753 2012704577
            -543289356 -537136963 1841028060 2012856255</internalNodes>
          <leafValues>
            -6.9122612476348877e-01 2.3855210840702057e-01</leafValues></_>
        <_>
          <internalNodes>
            0 -1 54 1572650979 2134493624 1381103596 -1344284780
            2045522916 1844420332 -67276932 653622259</internalNodes>
          <leafValues>
            -5.7762217521667480e-01 2.8067588806152344e-01</leafValues></_></weakClassifiers></_>
    <!-- stage 9 -->
    <_>
      <maxWeakCount>11</maxWeakCount>
      <stageThreshold>-2.6933703422546387e+00</stageThreshold>
      <weakClassifiers>
        <_>
          <internalNodes>
            0 -1 38 -292618241 -2097153 -131585 -8233 -5506049 -272129
            -11535361 -13313</internalNodes>
          <leafValues>
            -8.7692308425903320e-01 -1.0588235408067703e-01</leafValues></_>
        <_>
          <internalNodes>
            0 -1 15 -553660673 -16779469 -157357362 -17377382 -67418881
            1049066013 -722178 -42469505</internalNodes>
          <leafValues>
            -6.6804194450378418e-01 1.6093964874744415e-01</leafValues></_>
        <_>
          <internalNodes>
            0 -1 62 -109970184 1561458652 -124160032 -4477579 -52569397
            1499314878 -323559510 909115359</internalNodes>
          <leafValues>
            -5.3530049324035645e-01 3.0160292983055115e-01</leafValues></_>
        <_>
          <internalNodes>
            0 -1 34 -215043 2147438939 -275036419 2147418046 -5546151
            -8707732 1969942396 -9175170</internalNodes>
          <leafValues>
            -4.3012931942939758e-01 4.1999366879463196e-01</leafValues></_>
        <_>
          <internalNodes>
            0 -1 91 -50336233 -6295697 -1120666113 -1073808421 -16892
            -1073801333 -553718180 1748025125</internalNodes>
          <leafValues>
            -5.7490497827529907e-01 3.1559053063392639e-01</leafValues></_>
        <_>
          <internalNodes>
            0 -1 70 1043696776 -8420680 -1078613631 -4195403 -1140986748
            2147465716 631713580 1979023273</internalNodes>
          <leafValues>
            -6.2823778390884399e-01 2.8515851497650146e-01</leafValues></_>
        <_>
          <internalNodes>
            0 -1 87 788250619 784323002 -1193545219 1860108213 737931263
            -1398826562 464400367 -1895825475</internalNodes>
          <leafValues>
            -4.9998998641967773e-01 3.2345151901245117e-01</leafValues></_>
        <_>
          <internalNodes>
            0 -1 40 -859761662 1699473270 -1260953762 2147048279
            -69405772 1473292527 905310615 1035958783</internalNodes>
          <leafValues>
            -5.1381158828735352e-01 3.2712683081626892e-01</leafValues></_>
        <_>
          <internalNodes>
            0 -1 0 -295261219 -24205323 -707274757 -808030370
            -1085277185 -1125 -623051411 -1025638913</internalNodes>
          <leafValues>
            -4.3048867583274841e-01 3.9001286029815674e-01</leafValues></_>
        <_>
          <internalNodes>
            0 -1 24 -476264772 -559959604 -188464919 -167818291
            -273748108 1607857042 -84349094 1168067518</internalNodes>
          <leafValues>
            -4.9159690737724304e-01 3.3138135075569153e-01</leafValues></_>
        <_>
          <internalNodes>
            0 -1 96 -1174422541 -1901079565 2005250738 -392896521
            1791868903 247461935 -212733708 -1061359618</internalNodes>
          <leafValues>
            -5.6181311607360840e-01 3.1122413277626038e-01</leafValues></_></weakClassifiers></_>
    <!-- stage 10 -->
    <_>
      <maxWeakCount>11</maxWeakCount>
      <stageThreshold>-2.7217264175415039e+00</stageThreshold>
      <weakClassifiers>
        <_>
          <internalNodes>
            0 -1 59 -604111017 -10660353 -139265 -273409 -71565569
            -89153 -23331585 -9477</internalNodes>
          <leafValues>
            -8.7496328353881836e-01 -1.1615487188100815e-01</leafValues></_>
        <_>
          <internalNodes>
            0 -1 74 -537002113 -1153781455 -581182473 -33554952
            -241958915 -1375995399 -1108571651 -1879052804</internalNodes>
          <leafValues>
            -6.3502573966979980e-01 1.9269888103008270e-01</leafValues></_>
        <_>
          <internalNodes>
            0 -1 58 1580597247 -1078657105 1609039215 -269484049
            -304254985 -1140850949 -233875 -285870091</internalNodes>
          <leafValues>
            -4.3327012658119202e-01 3.8241156935691833e-01</leafValues></_>
        <_>
          <internalNodes>
            0 -1 11 -558986050 -829489426 -19229226 58445762 -22151177
            1308556283 -21040130 486277119</internalNodes>
          <leafValues>
            -5.7859891653060913e-01 2.8492513298988342e-01</leafValues></_>
        <_>
          <internalNodes>
            0 -1 26 -16802051 1592786783 -901265684 -622920850
            2130275910 1597413659 -604646332 -76481707</internalNodes>
          <leafValues>
            -6.2857639789581299e-01 2.5126889348030090e-01</leafValues></_>
        <_>
          <internalNodes>
            0 -1 83 -2638587 -549585027 -3 -337248323 -251204 -1
            -1158168641 2087976895</internalNodes>
          <leafValues>
            -3.7767904996871948e-01 4.2040809988975525e-01</leafValues></_>
        <_>
          <internalNodes>
            0 -1 92 2139094819 1911542239 -224919968 -341943450
            2136992599 1249856430 -168040576 -1061963531</internalNodes>
          <leafValues>
            -5.1012718677520752e-01 3.0796426534652710e-01</leafValues></_>
        <_>
          <internalNodes>
            0 -1 42 -125519623 1864357311 1974684957 2143263287
            -574755851 2137893020 -1079079026 1709665498</internalNodes>
          <leafValues>
            -4.1516652703285217e-01 3.8921433687210083e-01</leafValues></_>
        <_>
          <internalNodes>
            0 -1 66 1036484607 1033862621 -686040065 -1898318849
            -1141933185 -284470 2012967796 2127885652</internalNodes>
          <leafValues>
            -6.9458734989166260e-01 2.3108504712581635e-01</leafValues></_>
        <_>
          <internalNodes>
            0 -1 51 2093734018 -193086508 -725325598 1993936038
            -321585710 -2125157570 -1502113985 924468094</internalNodes>
          <leafValues>
            -5.4766899347305298e-01 2.9502859711647034e-01</leafValues></_>
        <_>
          <internalNodes>
            0 -1 55 2043475783 -1914897452 1159071358 -1383171416
            499416180 -6163542 -541180420 2146401274</internalNodes>
          <leafValues>
            -4.7865885496139526e-01 3.3080470561981201e-01</leafValues></_></weakClassifiers></_>
    <!-- stage 11 -->
    <_>
      <maxWeakCount>12</maxWeakCount>
      <stageThreshold>-2.6246712207794189e+00</stageThreshold>
      <weakClassifiers>
        <_>
          <internalNodes>
            0 -1 67 -8873 -798209 -44048897 -4227713 -1145307393
            -6387249 -71304449 -1073743121</internalNodes>
          <leafValues>
            -8.7581831216812134e-01 -2.2522522509098053e-01</leafValues></_>
        <_>
          <internalNodes>
            0 -1 78 -33555193 -8353 969920975 -1610613825 -2118940
            -1074004485 -85137185 -13655185</internalNodes>
          <leafValues>
            -6.3418167829513550e-01 1.5427683293819427e-01</leafValues></_>
        <_>
          <internalNodes>
            0 -1 47 -574737025 -2204849 -756821547 -1074182663
            1264468957 -325089 2063236091 2065857339</internalNodes>
          <leafValues>
            -5.0386428833007813e-01 3.0002155900001526e-01</leafValues></_>
        <_>
          <internalNodes>
            0 -1 35 445155512 -564271043 86314019 1476365843 -1961104448
            1599645852 661896230 297248202</internalNodes>
          <leafValues>
            -6.5814042091369629e-01 2.2067806124687195e-01</leafValues></_>
        <_>
          <internalNodes>
            0 -1 77 -1128808459 -2085094920 -1589124647 -39855888
            -1387544577 -1346458741 998948861 -1912611331</internalNodes>
          <leafValues>
            -3.7778440117835999e-01 4.2684644460678101e-01</leafValues></_>
        <_>
          <internalNodes>
            0 -1 48 -1464631365 -1082957857 1740732415 -268830755
            -40899587 -20101973 1836833775 259671221</internalNodes>
          <leafValues>
            -4.8755824565887451e-01 3.4443047642707825e-01</leafValues></_>
        <_>
          <internalNodes>
            0 -1 29 -473185150 1039441756 -1326972238 363289528
            -608406836 2072754347 -67215874 2013134810</internalNodes>
          <leafValues>
            -5.7782703638076782e-01 2.7890494465827942e-01</leafValues></_>
        <_>
          <internalNodes>
            0 -1 69 2094923569 1041815077 -518567455 -1345652308
            2145024959 -5524995 -1178632372 618657782</internalNodes>
          <leafValues>
            -4.8475021123886108e-01 3.2872217893600464e-01</leafValues></_>
        <_>
          <internalNodes>
            0 -1 68 1072152019 718787049 -381029337 743307661 2140753783
            -72232549 -1646266044 -2066374672</internalNodes>
          <leafValues>
            -6.2142455577850342e-01 2.5268256664276123e-01</leafValues></_>
        <_>
          <internalNodes>
            0 -1 49 8437922 -547711532 -1247710850 -6567238 2084361708
            2037237993 797866745 771189502</internalNodes>
          <leafValues>
            -6.2693423032760620e-01 2.5619176030158997e-01</leafValues></_>
        <_>
          <internalNodes>
            0 -1 44 -95650012 -1652854372 293641377 -270555532
            2076643796 -10566020 -88888390 1030748959</internalNodes>
          <leafValues>
            -4.6012127399444580e-01 3.4484031796455383e-01</leafValues></_>
        <_>
          <internalNodes>
            0 -1 97 736079519 -1461949554 1640158172 -1522631465
            -1345640529 -1969339716 -1160808469 -1931164689</internalNodes>
          <leafValues>
            -4.8787447810173035e-01 3.2577222585678101e-01</leafValues></_></weakClassifiers></_></stages>
  <features>
    <_>
      <rect>
        0 0 2 3</rect></_>
    <_>
      <rect>
        0 0 6 4</rect></_>
    <_>
      <rect>
        0 0 6 6</rect></_>
    <_>
      <rect>
        0 0 8 5</rect></_>
    <_>
      <rect>
        0 0 8 7</rect></_>
    <_>
      <rect>
        0 0 8 8</rect></_>
    <_>
      <rect>
        0 1 4 2</rect></_>
    <_>
      <rect>
        0 1 5 6</rect></_>
    <_>
      <rect>
        0 2 1 4</rect></_>
    <_>
      <rect>
        0 2 2 2</rect></_>
    <_>
      <rect>
        0 2 4 5</rect></_>
    <_>
      <rect>
        0 3 3 5</rect></_>
    <_>
      <rect>
        0 6 1 2</rect></_>
    <_>
      <rect>
        0 9 1 1</rect></_>
    <_>
      <rect>
        0 11 1 1</rect></_>
    <_>
      <rect>
        0 11 1 2</rect></_>
    <_>
      <rect>
        0 13 1 2</rect></_>
    <_>
      <rect>
        0 19 3 1</rect></_>
    <_>
      <rect>
        0 21 2 1</rect></_>
    <_>
      <rect>
        1 0 5 1</rect></_>
    <_>
      <rect>
        1 0 7 4</rect></_>
    <_>
      <rect>
        1 1 2 2</rect></_>
    <_>
      <rect>
        1 3 6 4</rect></_>
    <_>
      <rect>
        1 5 1 1</rect></_>
    <_>
      <rect>
        1 8 6 4</rect></_>
    <_>
      <rect>
        1 14 1 1</rect></_>
    <_>
      <rect>
        1 15 1 1</rect></_>
    <_>
      <rect>
        1 21 2 1</rect></_>
    <_>
      <rect>
        2 0 5 3</rect></_>
    <_>
      <rect>
        2 1 4 5</rect></_>
    <_>
      <rect>
        2 2 2 1</rect></_>
    <_>
      <rect>
        2 8 4 5</rect></_>
    <_>
      <rect>
        2 8 6 5</rect></_>
    <_>
      <rect>
        2 17 1 1</rect></_>
    <_>
      <rect>
        2 21 2 1</rect></_>
    <_>
      <rect>
        3 3 6 4</rect></_>
    <_>
      <rect>
        3 12 5 4</rect></_>
    <_>
      <rect>
        3 19 1 1</rect></_>
    <_>
      <rect>
        4 0 3 1</rect></_>
    <_>
      <rect>
        4 15 1 1</rect></_>
    <_>
      <rect>
        5 0 4 6</rect></_>
    <_>
      <rect>
        5 1 1 1</rect></_>
    <_>
      <rect>
        5 2 5 4</rect></_>
    <_>
      <rect>
        6 4 5 5</rect></_>
    <_>
      <rect>
        6 10 6 4</rect></_>
    <_>
      <rect>
        6 12 6 4</rect></_>
    <_>
      <rect>
        6 20 1 1</rect></_>
    <_>
      <rect>
        6 21 1 1</rect></_>
    <_>
      <rect>
        7 0 1 1</rect></_>
    <_>
      <rect>
        7 0 4 5</rect></_>
    <_>
      <rect>
        7 2 4 5</rect></_>
    <_>
      <rect>
        7 2 4 6</rect></_>
    <_>
      <rect>
        7 6 2 1</rect></_>
    <_>
      <rect>
        7 8 3 4</rect></_>
    <_>
      <rect>
        7 11 4 3</rect></_>
    <_>
      <rect>
        7 15 3 3</rect></_>
    <_>
      <rect>
        7 21 1 1</rect></_>
    <_>
      <rect>
        8 0 5 1</rect></_>
    <_>
      <rect>
        8 6 2 2</rect></_>
    <_>
      <rect>
        9 0 5 1</rect></_>
    <_>
      <rect>
        9 1 5 5</rect></_>
    <_>
      <rect>
        9 3 5 6</rect></_>
    <_>
      <rect>
        9 5 4 5</rect></_>
    <_>
      <rect>
        9 14 2 2</rect></_>
    <_>
      <rect>
        10 7 2 1</rect></_>
    <_>
      <rect>
        10 8 3 3</rect></_>
    <_>
      <rect>
        10 13 1 1</rect></_>
    <_>
      <rect>
        11 0 3 1</rect></_>
    <_>
      <rect>
        11 5 2 1</rect></_>
    <_>
      <rect>
        11 11 3 2</rect></_>
    <_>
      <rect>
        12 4 4 4</rect></_>
    <_>
      <rect>
        12 8 1 2</rect></_>
    <_>
      <rect>
        12 8 4 4</rect></_>
    <_>
      <rect>
        12 13 4 3</rect></_>
    <_>
      <rect>
        12 21 2 1</rect></_>
    <_>
      <rect>
        14 0 3 2</rect></_>
    <_>
      <rect>
        15 0 2 2</rect></_>
    <_>
      <rect>
        16 20 1 1</rect></_>
    <_>
      <rect>
        17 1 2 2</rect></_>
    <_>
      <rect>
        17 18 1 1</rect></_>
    <_>
      <rect>
        17 19 1 1</rect></_>
    <_>
      <rect>
        17 21 2 1</rect></_>
    <_>
      <rect>
        18 2 2 2</rect></_>
    <_>
      <rect>
        18 2 2 3</rect></_>
    <_>
      <rect>
        18 3 2 2</rect></_>
    <_>
      <rect>
        18 15 2 2</rect></_>
    <_>
      <rect>
        18 17 2 2</rect></_>
    <_>
      <rect>
        18 21 1 1</rect></_>
    <_>
      <rect>
        18 21 2 1</rect></_>
    <_>
      <rect>
        19 4 1 1</rect></_>
    <_>
      <rect>
        20 5 1 1</rect></_>
    <_>
      <rect>
        21 5 1 2</rect></_>
    <_>
      <rect>
        21 11 1 1</rect></_>
    <_>
      <rect>
        21 12 1 1</rect></_>
    <_>
      <rect>
        21 13 1 1</rect></_>
    <_>
      <rect>
        21 14 1 1</rect></_>
    <_>
      <rect>
        21 15 1 1</rect></_>
    <_>
      <rect>
        21 18 1 2</rect></_></features></cascade>
</opencv_storage>
