<?xml version="1.0"?>
<opencv_storage>
<cascade>
  <stageType>BOOST</stageType>
  <featureType>HAAR</featureType>
  <height>16</height>
  <width>16</width>
  <stageParams>
    <boostType>GAB</boostType>
    <minHitRate>9.9500000476837158e-01</minHitRate>
    <maxFalseAlarm>5.0000000000000000e-01</maxFalseAlarm>
    <weightTrimRate>9.4999998807907104e-01</weightTrimRate>
    <maxDepth>1</maxDepth>
    <maxWeakCount>100</maxWeakCount></stageParams>
  <featureParams>
    <maxCatCount>0</maxCatCount>
    <featSize>1</featSize>
    <mode>BASIC</mode></featureParams>
  <stageNum>20</stageNum>
  <stages>
    <!-- stage 0 -->
    <_>
      <maxWeakCount>9</maxWeakCount>
      <stageThreshold>-1.2329751253128052e+00</stageThreshold>
      <weakClassifiers>
        <_>
          <internalNodes>
            0 -1 204 -1.9763869047164917e-01</internalNodes>
          <leafValues>
            6.3724809885025024e-01 -6.7376929521560669e-01</leafValues></_>
        <_>
          <internalNodes>
            0 -1 191 6.0882382094860077e-02</internalNodes>
          <leafValues>
            -3.4081572294235229e-01 8.0302828550338745e-01</leafValues></_>
        <_>
          <internalNodes>
            0 -1 101 -1.8837698735296726e-03</internalNodes>
          <leafValues>
            -5.7107251882553101e-01 3.0608129501342773e-01</leafValues></_>
        <_>
          <internalNodes>
            0 -1 125 4.7564338892698288e-02</internalNodes>
          <leafValues>
            -2.3803269863128662e-01 5.9031122922897339e-01</leafValues></_>
        <_>
          <internalNodes>
            0 -1 333 1.8004951998591423e-02</internalNodes>
          <leafValues>
            -2.3693192005157471e-01 5.1448762416839600e-01</leafValues></_>
        <_>
          <internalNodes>
            0 -1 570 9.6107162535190582e-03</internalNodes>
          <leafValues>
            -2.7171882987022400e-01 3.7043017148971558e-01</leafValues></_>
        <_>
          <internalNodes>
            0 -1 474 -1.4875102788209915e-03</internalNodes>
          <leafValues>
            -6.2956404685974121e-01 1.8792727589607239e-01</leafValues></_>
        <_>
          <internalNodes>
            0 -1 317 6.7740805447101593e-02</internalNodes>
          <leafValues>
            -2.2293587028980255e-01 4.6281191706657410e-01</leafValues></_>
        <_>
          <internalNodes>
            0 -1 372 -3.1571090221405029e-02</internalNodes>
          <leafValues>
            4.9222546815872192e-01 -2.0543128252029419e-01</leafValues></_></weakClassifiers></_>
    <!-- stage 1 -->
    <_>
      <maxWeakCount>15</maxWeakCount>
      <stageThreshold>-1.3412952423095703e+00</stageThreshold>
      <weakClassifiers>
        <_>
          <internalNodes>
            0 -1 239 6.1941474676132202e-02</internalNodes>
          <leafValues>
            -2.9920476675033569e-01 7.6395940780639648e-01</leafValues></_>
        <_>
          <internalNodes>
            0 -1 104 1.8341130018234253e-01</internalNodes>
          <leafValues>
            -3.5952988266944885e-01 4.8714235424995422e-01</leafValues></_>
        <_>
          <internalNodes>
            0 -1 48 1.6939111053943634e-02</internalNodes>
          <leafValues>
            -4.5943599939346313e-01 3.2576945424079895e-01</leafValues></_>
        <_>
          <internalNodes>
            0 -1 215 4.9481999129056931e-02</internalNodes>
          <leafValues>
            -2.4769437313079834e-01 5.9534710645675659e-01</leafValues></_>
        <_>
          <internalNodes>
            0 -1 116 -9.8646581172943115e-02</internalNodes>
          <leafValues>
            2.3991005122661591e-01 -5.4907822608947754e-01</leafValues></_>
        <_>
          <internalNodes>
            0 -1 279 2.1409776061773300e-02</internalNodes>
          <leafValues>
            -2.1295785903930664e-01 4.7736376523971558e-01</leafValues></_>
        <_>
          <internalNodes>
            0 -1 556 -1.6287981998175383e-03</internalNodes>
          <leafValues>
            -4.3410199880599976e-01 2.0244610309600830e-01</leafValues></_>
        <_>
          <internalNodes>
            0 -1 146 -1.0127080976963043e-01</internalNodes>
          <leafValues>
            6.8160921335220337e-01 -1.2920702993869781e-01</leafValues></_>
        <_>
          <internalNodes>
            0 -1 447 4.2271550744771957e-02</internalNodes>
          <leafValues>
            -1.2480482459068298e-01 6.1799931526184082e-01</leafValues></_>
        <_>
          <internalNodes>
            0 -1 197 5.5047556757926941e-02</internalNodes>
          <leafValues>
            -2.0260651409626007e-01 4.8403477668762207e-01</leafValues></_>
        <_>
          <internalNodes>
            0 -1 521 1.6616990789771080e-02</internalNodes>
          <leafValues>
            -1.3807536661624908e-01 6.1911284923553467e-01</leafValues></_>
        <_>
          <internalNodes>
            0 -1 52 -2.4925738573074341e-02</internalNodes>
          <leafValues>
            4.9019268155097961e-01 -1.5391477942466736e-01</leafValues></_>
        <_>
          <internalNodes>
            0 -1 194 6.0447104275226593e-02</internalNodes>
          <leafValues>
            -1.3594017922878265e-01 6.8445360660552979e-01</leafValues></_>
        <_>
          <internalNodes>
            0 -1 598 1.3797162100672722e-03</internalNodes>
          <leafValues>
            1.4550858736038208e-01 -6.7095249891281128e-01</leafValues></_>
        <_>
          <internalNodes>
            0 -1 250 -5.3667970001697540e-02</internalNodes>
          <leafValues>
            5.5217790603637695e-01 -1.5242974460124969e-01</leafValues></_></weakClassifiers></_>
    <!-- stage 2 -->
    <_>
      <maxWeakCount>21</maxWeakCount>
      <stageThreshold>-1.5371693372726440e+00</stageThreshold>
      <weakClassifiers>
        <_>
          <internalNodes>
            0 -1 520 -2.6943448930978775e-02</internalNodes>
          <leafValues>
            4.9834984540939331e-01 -3.8035264611244202e-01</leafValues></_>
        <_>
          <internalNodes>
            0 -1 173 -1.8486028909683228e-01</internalNodes>
          <leafValues>
            2.6120537519454956e-01 -5.1315826177597046e-01</leafValues></_>
        <_>
          <internalNodes>
            0 -1 292 4.4284038245677948e-02</internalNodes>
          <leafValues>
            -2.2022102773189545e-01 5.6633996963500977e-01</leafValues></_>
        <_>
          <internalNodes>
            0 -1 437 -1.6825780272483826e-02</internalNodes>
          <leafValues>
            4.9972030520439148e-01 -1.8306347727775574e-01</leafValues></_>
        <_>
          <internalNodes>
            0 -1 524 2.2006347775459290e-02</internalNodes>
          <leafValues>
            -1.9908767938613892e-01 4.7709527611732483e-01</leafValues></_>
        <_>
          <internalNodes>
            0 -1 545 -8.6349034681916237e-03</internalNodes>
          <leafValues>
            5.1375079154968262e-01 -2.0920403301715851e-01</leafValues></_>
        <_>
          <internalNodes>
            0 -1 577 8.1353784480597824e-05</internalNodes>
          <leafValues>
            -2.3351341485977173e-01 3.6522340774536133e-01</leafValues></_>
        <_>
          <internalNodes>
            0 -1 208 3.3740825951099396e-02</internalNodes>
          <leafValues>
            -1.9415217638015747e-01 4.7844621539115906e-01</leafValues></_>
        <_>
          <internalNodes>
            0 -1 406 3.8023702800273895e-02</internalNodes>
          <leafValues>
            -1.6578051447868347e-01 5.3356611728668213e-01</leafValues></_>
        <_>
          <internalNodes>
            0 -1 381 1.8872367218136787e-02</internalNodes>
          <leafValues>
            -1.5982121229171753e-01 5.4404473304748535e-01</leafValues></_>
        <_>
          <internalNodes>
            0 -1 562 -2.2849272936582565e-03</internalNodes>
          <leafValues>
            -3.2169440388679504e-01 2.1044418215751648e-01</leafValues></_>
        <_>
          <internalNodes>
            0 -1 614 1.5595695003867149e-03</internalNodes>
          <leafValues>
            1.0785356909036636e-01 -6.7496252059936523e-01</leafValues></_>
        <_>
          <internalNodes>
            0 -1 547 -1.2316425330936909e-02</internalNodes>
          <leafValues>
            4.2595985531806946e-01 -1.6674308478832245e-01</leafValues></_>
        <_>
          <internalNodes>
            0 -1 32 2.0126023446209729e-04</internalNodes>
          <leafValues>
            -3.2746848464012146e-01 1.9394858181476593e-01</leafValues></_>
        <_>
          <internalNodes>
            0 -1 362 -4.4978387653827667e-02</internalNodes>
          <leafValues>
            5.5511897802352905e-01 -1.1232160031795502e-01</leafValues></_>
        <_>
          <internalNodes>
            0 -1 309 -7.3113292455673218e-02</internalNodes>
          <leafValues>
            8.1054013967514038e-01 -7.4278183281421661e-02</leafValues></_>
        <_>
          <internalNodes>
            0 -1 600 1.2036634143441916e-03</internalNodes>
          <leafValues>
            1.3436207175254822e-01 -5.7459402084350586e-01</leafValues></_>
        <_>
          <internalNodes>
            0 -1 45 3.4851275384426117e-02</internalNodes>
          <leafValues>
            -1.0942299664020538e-01 6.8656450510025024e-01</leafValues></_>
        <_>
          <internalNodes>
            0 -1 189 6.4702153205871582e-02</internalNodes>
          <leafValues>
            -1.5914595127105713e-01 3.9464801549911499e-01</leafValues></_>
        <_>
          <internalNodes>
            0 -1 16 5.0376898050308228e-01</internalNodes>
          <leafValues>
            1.0192834585905075e-01 -6.2017494440078735e-01</leafValues></_>
        <_>
          <internalNodes>
            0 -1 162 2.6768423616886139e-02</internalNodes>
          <leafValues>
            -1.3044857978820801e-01 4.9793913960456848e-01</leafValues></_></weakClassifiers></_>
    <!-- stage 3 -->
    <_>
      <maxWeakCount>23</maxWeakCount>
      <stageThreshold>-1.4021254777908325e+00</stageThreshold>
      <weakClassifiers>
        <_>
          <internalNodes>
            0 -1 191 5.8283932507038116e-02</internalNodes>
          <leafValues>
            -3.4801763296127319e-01 4.5664739608764648e-01</leafValues></_>
        <_>
          <internalNodes>
            0 -1 606 6.9684535264968872e-03</internalNodes>
          <leafValues>
            -2.4604743719100952e-01 4.1332870721817017e-01</leafValues></_>
        <_>
          <internalNodes>
            0 -1 242 -1.9548812508583069e-01</internalNodes>
          <leafValues>
            2.3391401767730713e-01 -3.7390029430389404e-01</leafValues></_>
        <_>
          <internalNodes>
            0 -1 578 -9.3185441801324487e-04</internalNodes>
          <leafValues>
            -5.0054687261581421e-01 1.7744943499565125e-01</leafValues></_>
        <_>
          <internalNodes>
            0 -1 17 -5.6956154294312000e-03</internalNodes>
          <leafValues>
            -4.4223105907440186e-01 2.1937230229377747e-01</leafValues></_>
        <_>
          <internalNodes>
            0 -1 265 1.9978955388069153e-02</internalNodes>
          <leafValues>
            -2.1528209745883942e-01 3.9728996157646179e-01</leafValues></_>
        <_>
          <internalNodes>
            0 -1 123 3.9107769727706909e-02</internalNodes>
          <leafValues>
            -1.0546348243951797e-01 5.9535163640975952e-01</leafValues></_>
        <_>
          <internalNodes>
            0 -1 579 1.3869418762624264e-03</internalNodes>
          <leafValues>
            1.3409948348999023e-01 -5.8271121978759766e-01</leafValues></_>
        <_>
          <internalNodes>
            0 -1 160 -3.6777265369892120e-02</internalNodes>
          <leafValues>
            5.5790561437606812e-01 -1.3957102596759796e-01</leafValues></_>
        <_>
          <internalNodes>
            0 -1 307 -2.4303738027811050e-02</internalNodes>
          <leafValues>
            4.3641701340675354e-01 -1.7073726654052734e-01</leafValues></_>
        <_>
          <internalNodes>
            0 -1 393 -1.7808313714340329e-03</internalNodes>
          <leafValues>
            -6.6343772411346436e-01 1.1922946572303772e-01</leafValues></_>
        <_>
          <internalNodes>
            0 -1 301 2.8481869027018547e-02</internalNodes>
          <leafValues>
            -2.0512458682060242e-01 3.1532433629035950e-01</leafValues></_>
        <_>
          <internalNodes>
            0 -1 601 1.2597488239407539e-03</internalNodes>
          <leafValues>
            1.4034263789653778e-01 -5.0812989473342896e-01</leafValues></_>
        <_>
          <internalNodes>
            0 -1 238 1.5664707869291306e-02</internalNodes>
          <leafValues>
            -1.2821018695831299e-01 5.2933681011199951e-01</leafValues></_>
        <_>
          <internalNodes>
            0 -1 303 -4.7157980501651764e-02</internalNodes>
          <leafValues>
            5.2782297134399414e-01 -1.0543756932020187e-01</leafValues></_>
        <_>
          <internalNodes>
            0 -1 167 -3.1815253198146820e-02</internalNodes>
          <leafValues>
            5.0104373693466187e-01 -1.3266743719577789e-01</leafValues></_>
        <_>
          <internalNodes>
            0 -1 554 -1.6170290764421225e-03</internalNodes>
          <leafValues>
            -6.1032664775848389e-01 1.1020836234092712e-01</leafValues></_>
        <_>
          <internalNodes>
            0 -1 277 3.8576174527406693e-02</internalNodes>
          <leafValues>
            -1.4830279350280762e-01 3.9895734190940857e-01</leafValues></_>
        <_>
          <internalNodes>
            0 -1 344 -1.5792448539286852e-03</internalNodes>
          <leafValues>
            -6.2365305423736572e-01 9.9573761224746704e-02</leafValues></_>
        <_>
          <internalNodes>
            0 -1 77 2.1757024526596069e-01</internalNodes>
          <leafValues>
            7.0277445018291473e-02 -7.0255893468856812e-01</leafValues></_>
        <_>
          <internalNodes>
            0 -1 489 2.9972946271300316e-02</internalNodes>
          <leafValues>
            -1.5061166882514954e-01 4.0208211541175842e-01</leafValues></_>
        <_>
          <internalNodes>
            0 -1 92 -1.2143228668719530e-03</internalNodes>
          <leafValues>
            -5.1397895812988281e-01 1.0687062889337540e-01</leafValues></_>
        <_>
          <internalNodes>
            0 -1 118 -1.0646004229784012e-02</internalNodes>
          <leafValues>
            5.3426098823547363e-01 -1.0225113481283188e-01</leafValues></_></weakClassifiers></_>
    <!-- stage 4 -->
    <_>
      <maxWeakCount>20</maxWeakCount>
      <stageThreshold>-1.2085089683532715e+00</stageThreshold>
      <weakClassifiers>
        <_>
          <internalNodes>
            0 -1 564 -2.5332173332571983e-02</internalNodes>
          <leafValues>
            6.4366376399993896e-01 -2.5611582398414612e-01</leafValues></_>
        <_>
          <internalNodes>
            0 -1 92 -7.2734706918708980e-05</internalNodes>
          <leafValues>
            3.6591559648513794e-01 -3.1668007373809814e-01</leafValues></_>
        <_>
          <internalNodes>
            0 -1 408 3.9441075176000595e-02</internalNodes>
          <leafValues>
            -1.7223407328128815e-01 5.7583707571029663e-01</leafValues></_>
        <_>
          <internalNodes>
            0 -1 212 1.9869813695549965e-02</internalNodes>
          <leafValues>
            -2.8316146135330200e-01 4.9113041162490845e-01</leafValues></_>
        <_>
          <internalNodes>
            0 -1 300 3.0270094051957130e-02</internalNodes>
          <leafValues>
            -2.3173032701015472e-01 4.1778394579887390e-01</leafValues></_>
        <_>
          <internalNodes>
            0 -1 68 -3.1334239244461060e-01</internalNodes>
          <leafValues>
            3.2414761185646057e-01 -2.8522878885269165e-01</leafValues></_>
        <_>
          <internalNodes>
            0 -1 64 2.9556877911090851e-02</internalNodes>
          <leafValues>
            -1.4631415903568268e-01 6.0888582468032837e-01</leafValues></_>
        <_>
          <internalNodes>
            0 -1 159 2.4678532034158707e-02</internalNodes>
          <leafValues>
            -1.8823705613613129e-01 3.7816029787063599e-01</leafValues></_>
        <_>
          <internalNodes>
            0 -1 597 -1.6828619409352541e-03</internalNodes>
          <leafValues>
            -5.2026295661926270e-01 1.2253623455762863e-01</leafValues></_>
        <_>
          <internalNodes>
            0 -1 29 1.0713571682572365e-03</internalNodes>
          <leafValues>
            1.4392203092575073e-01 -4.2403304576873779e-01</leafValues></_>
        <_>
          <internalNodes>
            0 -1 512 -1.2514560949057341e-03</internalNodes>
          <leafValues>
            -6.3666659593582153e-01 7.8975751996040344e-02</leafValues></_>
        <_>
          <internalNodes>
            0 -1 335 2.5814881548285484e-02</internalNodes>
          <leafValues>
            -1.4094999432563782e-01 4.4351974129676819e-01</leafValues></_>
        <_>
          <internalNodes>
            0 -1 448 4.7926049679517746e-02</internalNodes>
          <leafValues>
            -1.4285954833030701e-01 4.8993480205535889e-01</leafValues></_>
        <_>
          <internalNodes>
            0 -1 238 1.9947567954659462e-02</internalNodes>
          <leafValues>
            -8.3347186446189880e-02 5.7296794652938843e-01</leafValues></_>
        <_>
          <internalNodes>
            0 -1 486 -8.5218716412782669e-03</internalNodes>
          <leafValues>
            4.8108279705047607e-01 -1.1705250293016434e-01</leafValues></_>
        <_>
          <internalNodes>
            0 -1 614 7.3196752055082470e-05</internalNodes>
          <leafValues>
            -2.2107321023941040e-01 2.6291286945343018e-01</leafValues></_>
        <_>
          <internalNodes>
            0 -1 581 -1.2774929637089372e-03</internalNodes>
          <leafValues>
            -3.5400313138961792e-01 1.3974656164646149e-01</leafValues></_>
        <_>
          <internalNodes>
            0 -1 615 9.5775967929512262e-04</internalNodes>
          <leafValues>
            1.3012117147445679e-01 -4.5008692145347595e-01</leafValues></_>
        <_>
          <internalNodes>
            0 -1 14 5.5520141124725342e-01</internalNodes>
          <leafValues>
            5.2514076232910156e-02 -8.1045556068420410e-01</leafValues></_>
        <_>
          <internalNodes>
            0 -1 229 -4.2253974825143814e-03</internalNodes>
          <leafValues>
            -5.6082814931869507e-01 6.8908751010894775e-02</leafValues></_></weakClassifiers></_>
    <!-- stage 5 -->
    <_>
      <maxWeakCount>35</maxWeakCount>
      <stageThreshold>-1.1956212520599365e+00</stageThreshold>
      <weakClassifiers>
        <_>
          <internalNodes>
            0 -1 479 2.7124674990773201e-02</internalNodes>
          <leafValues>
            -2.8017717599868774e-01 5.0905430316925049e-01</leafValues></_>
        <_>
          <internalNodes>
            0 -1 156 -2.1807274222373962e-01</internalNodes>
          <leafValues>
            2.7292001247406006e-01 -4.1483539342880249e-01</leafValues></_>
        <_>
          <internalNodes>
            0 -1 607 -1.2496214359998703e-02</internalNodes>
          <leafValues>
            4.2402589321136475e-01 -1.9336183369159698e-01</leafValues></_>
        <_>
          <internalNodes>
            0 -1 340 3.4360194113105536e-03</internalNodes>
          <leafValues>
            -1.6181898117065430e-01 3.8449427485466003e-01</leafValues></_>
        <_>
          <internalNodes>
            0 -1 12 5.7765841484069824e-02</internalNodes>
          <leafValues>
            -2.9641947150230408e-01 1.9287241995334625e-01</leafValues></_>
        <_>
          <internalNodes>
            0 -1 167 2.8496690094470978e-02</internalNodes>
          <leafValues>
            -1.1587486416101456e-01 5.5775123834609985e-01</leafValues></_>
        <_>
          <internalNodes>
            0 -1 165 -2.0777029916644096e-02</internalNodes>
          <leafValues>
            4.4267779588699341e-01 -1.2520693242549896e-01</leafValues></_>
        <_>
          <internalNodes>
            0 -1 110 -1.4316550455987453e-02</internalNodes>
          <leafValues>
            5.3367358446121216e-01 -8.5130780935287476e-02</leafValues></_>
        <_>
          <internalNodes>
            0 -1 27 3.4742859005928040e-01</internalNodes>
          <leafValues>
            5.5432461202144623e-02 -9.1459232568740845e-01</leafValues></_>
        <_>
          <internalNodes>
            0 -1 1 -1.3091090368106961e-03</internalNodes>
          <leafValues>
            -4.5665225386619568e-01 9.1697409749031067e-02</leafValues></_>
        <_>
          <internalNodes>
            0 -1 190 2.0876769721508026e-01</internalNodes>
          <leafValues>
            6.4485467970371246e-02 -6.8273943662643433e-01</leafValues></_>
        <_>
          <internalNodes>
            0 -1 241 1.7596019431948662e-02</internalNodes>
          <leafValues>
            -1.7577488720417023e-01 2.3408290743827820e-01</leafValues></_>
        <_>
          <internalNodes>
            0 -1 254 1.9349034875631332e-02</internalNodes>
          <leafValues>
            -1.9576624035835266e-01 2.8461292386054993e-01</leafValues></_>
        <_>
          <internalNodes>
            0 -1 420 2.7945206966251135e-04</internalNodes>
          <leafValues>
            -2.5103726983070374e-01 2.1527810394763947e-01</leafValues></_>
        <_>
          <internalNodes>
            0 -1 612 8.0537560279481113e-05</internalNodes>
          <leafValues>
            -1.6706864535808563e-01 2.5542622804641724e-01</leafValues></_>
        <_>
          <internalNodes>
            0 -1 349 3.0659611802548170e-03</internalNodes>
          <leafValues>
            1.1667131632566452e-01 -3.3801239728927612e-01</leafValues></_>
        <_>
          <internalNodes>
            0 -1 589 -5.5357273668050766e-03</internalNodes>
          <leafValues>
            3.9554166793823242e-01 -1.0912165045738220e-01</leafValues></_>
        <_>
          <internalNodes>
            0 -1 522 9.7797140479087830e-03</internalNodes>
          <leafValues>
            -1.6635607182979584e-01 2.7794858813285828e-01</leafValues></_>
        <_>
          <internalNodes>
            0 -1 431 -1.7808445263653994e-03</internalNodes>
          <leafValues>
            -5.2762252092361450e-01 7.7799685299396515e-02</leafValues></_>
        <_>
          <internalNodes>
            0 -1 136 4.0597235783934593e-03</internalNodes>
          <leafValues>
            -1.5398712456226349e-01 2.7816969156265259e-01</leafValues></_>
        <_>
          <internalNodes>
            0 -1 460 2.9275685548782349e-02</internalNodes>
          <leafValues>
            -1.4657442271709442e-01 3.0050048232078552e-01</leafValues></_>
        <_>
          <internalNodes>
            0 -1 261 -3.8239416480064392e-01</internalNodes>
          <leafValues>
            -7.2250473499298096e-01 6.5335243940353394e-02</leafValues></_>
        <_>
          <internalNodes>
            0 -1 348 -2.0000012591481209e-03</internalNodes>
          <leafValues>
            -3.3858385682106018e-01 1.0818294435739517e-01</leafValues></_>
        <_>
          <internalNodes>
            0 -1 115 3.5638414323329926e-02</internalNodes>
          <leafValues>
            8.6073651909828186e-02 -4.1945445537567139e-01</leafValues></_>
        <_>
          <internalNodes>
            0 -1 499 2.0202644169330597e-02</internalNodes>
          <leafValues>
            -1.2857164442539215e-01 3.3154374361038208e-01</leafValues></_>
        <_>
          <internalNodes>
            0 -1 223 1.5168629586696625e-02</internalNodes>
          <leafValues>
            -1.3468915224075317e-01 2.6091372966766357e-01</leafValues></_>
        <_>
          <internalNodes>
            0 -1 612 1.4493422349914908e-03</internalNodes>
          <leafValues>
            7.0703126490116119e-02 -5.3534042835235596e-01</leafValues></_>
        <_>
          <internalNodes>
            0 -1 312 1.2842345982789993e-02</internalNodes>
          <leafValues>
            -1.9870172441005707e-01 1.9323365390300751e-01</leafValues></_>
        <_>
          <internalNodes>
            0 -1 56 8.6722835898399353e-02</internalNodes>
          <leafValues>
            6.9651708006858826e-02 -5.1780849695205688e-01</leafValues></_>
        <_>
          <internalNodes>
            0 -1 569 1.2646678835153580e-02</internalNodes>
          <leafValues>
            -1.2986852228641510e-01 3.0773743987083435e-01</leafValues></_>
        <_>
          <internalNodes>
            0 -1 458 -1.4440575614571571e-03</internalNodes>
          <leafValues>
            -4.8533990979194641e-01 8.0904684960842133e-02</leafValues></_>
        <_>
          <internalNodes>
            0 -1 101 6.0137903690338135e-01</internalNodes>
          <leafValues>
            4.2444564402103424e-02 -7.9006022214889526e-01</leafValues></_>
        <_>
          <internalNodes>
            0 -1 245 6.4688563346862793e-02</internalNodes>
          <leafValues>
            -1.4620700478553772e-01 3.1477051973342896e-01</leafValues></_>
        <_>
          <internalNodes>
            0 -1 446 4.1747689247131348e-02</internalNodes>
          <leafValues>
            -1.0442768037319183e-01 3.4271427989006042e-01</leafValues></_>
        <_>
          <internalNodes>
            0 -1 408 -3.6971360445022583e-02</internalNodes>
          <leafValues>
            3.8778746128082275e-01 -1.0264079272747040e-01</leafValues></_></weakClassifiers></_>
    <!-- stage 6 -->
    <_>
      <maxWeakCount>29</maxWeakCount>
      <stageThreshold>-1.1979033946990967e+00</stageThreshold>
      <weakClassifiers>
        <_>
          <internalNodes>
            0 -1 191 8.6033865809440613e-02</internalNodes>
          <leafValues>
            -2.7319854497909546e-01 6.0505163669586182e-01</leafValues></_>
        <_>
          <internalNodes>
            0 -1 66 -2.8215807676315308e-01</internalNodes>
          <leafValues>
            2.8219437599182129e-01 -3.3415654301643372e-01</leafValues></_>
        <_>
          <internalNodes>
            0 -1 559 1.7782582435756922e-03</internalNodes>
          <leafValues>
            1.3584057986736298e-01 -4.9308893084526062e-01</leafValues></_>
        <_>
          <internalNodes>
            0 -1 601 -1.3010363327339292e-03</internalNodes>
          <leafValues>
            -4.2614567279815674e-01 2.1295633912086487e-01</leafValues></_>
        <_>
          <internalNodes>
            0 -1 613 -1.7382156802341342e-03</internalNodes>
          <leafValues>
            -5.0724583864212036e-01 8.5913762450218201e-02</leafValues></_>
        <_>
          <internalNodes>
            0 -1 293 1.0259025730192661e-02</internalNodes>
          <leafValues>
            -1.2975822389125824e-01 3.9442858099937439e-01</leafValues></_>
        <_>
          <internalNodes>
            0 -1 438 5.5845979601144791e-02</internalNodes>
          <leafValues>
            -1.3788528740406036e-01 4.8452088236808777e-01</leafValues></_>
        <_>
          <internalNodes>
            0 -1 585 1.3293237425386906e-02</internalNodes>
          <leafValues>
            -1.3230861723423004e-01 3.9502817392349243e-01</leafValues></_>
        <_>
          <internalNodes>
            0 -1 598 9.3316379934549332e-04</internalNodes>
          <leafValues>
            8.6817160248756409e-02 -5.1785671710968018e-01</leafValues></_>
        <_>
          <internalNodes>
            0 -1 598 7.2405207902193069e-05</internalNodes>
          <leafValues>
            -2.1311531960964203e-01 2.5382953882217407e-01</leafValues></_>
        <_>
          <internalNodes>
            0 -1 209 7.7307060360908508e-02</internalNodes>
          <leafValues>
            -6.4668871462345123e-02 6.7513120174407959e-01</leafValues></_>
        <_>
          <internalNodes>
            0 -1 379 1.2632866855710745e-03</internalNodes>
          <leafValues>
            9.4584070146083832e-02 -4.7494578361511230e-01</leafValues></_>
        <_>
          <internalNodes>
            0 -1 468 3.8830650737509131e-05</internalNodes>
          <leafValues>
            -2.0660617947578430e-01 2.0333871245384216e-01</leafValues></_>
        <_>
          <internalNodes>
            0 -1 249 -2.0132655277848244e-02</internalNodes>
          <leafValues>
            3.5314851999282837e-01 -1.3027460873126984e-01</leafValues></_>
        <_>
          <internalNodes>
            0 -1 252 1.4729251153767109e-02</internalNodes>
          <leafValues>
            -2.0190848410129547e-01 2.3776867985725403e-01</leafValues></_>
        <_>
          <internalNodes>
            0 -1 430 -1.8071199301630259e-03</internalNodes>
          <leafValues>
            -6.4032584428787231e-01 5.3892057389020920e-02</leafValues></_>
        <_>
          <internalNodes>
            0 -1 0 2.0547485910356045e-03</internalNodes>
          <leafValues>
            6.9056063890457153e-02 -5.4580622911453247e-01</leafValues></_>
        <_>
          <internalNodes>
            0 -1 62 2.2481910884380341e-01</internalNodes>
          <leafValues>
            8.6398586630821228e-02 -4.6427139639854431e-01</leafValues></_>
        <_>
          <internalNodes>
            0 -1 0 -2.6792415883392096e-03</internalNodes>
          <leafValues>
            -6.1065357923507690e-01 5.9531260281801224e-02</leafValues></_>
        <_>
          <internalNodes>
            0 -1 398 -3.3540867269039154e-02</internalNodes>
          <leafValues>
            3.7867611646652222e-01 -1.1293823271989822e-01</leafValues></_>
        <_>
          <internalNodes>
            0 -1 355 -6.6353180445730686e-03</internalNodes>
          <leafValues>
            4.4935849308967590e-01 -8.4589771926403046e-02</leafValues></_>
        <_>
          <internalNodes>
            0 -1 368 1.4902675524353981e-02</internalNodes>
          <leafValues>
            -1.7051643133163452e-01 2.3501440882682800e-01</leafValues></_>
        <_>
          <internalNodes>
            0 -1 321 -1.6376995481550694e-03</internalNodes>
          <leafValues>
            -4.5093506574630737e-01 1.0191995650529861e-01</leafValues></_>
        <_>
          <internalNodes>
            0 -1 503 1.1820258572697639e-02</internalNodes>
          <leafValues>
            -1.4897646009922028e-01 3.2497370243072510e-01</leafValues></_>
        <_>
          <internalNodes>
            0 -1 571 -8.3628845459315926e-05</internalNodes>
          <leafValues>
            1.6080749034881592e-01 -2.9905688762664795e-01</leafValues></_>
        <_>
          <internalNodes>
            0 -1 119 1.5963837504386902e-02</internalNodes>
          <leafValues>
            -1.4487510919570923e-01 2.9528772830963135e-01</leafValues></_>
        <_>
          <internalNodes>
            0 -1 382 -7.1846880018711090e-04</internalNodes>
          <leafValues>
            -3.3938965201377869e-01 1.0358711332082748e-01</leafValues></_>
        <_>
          <internalNodes>
            0 -1 437 5.7722438126802444e-02</internalNodes>
          <leafValues>
            -6.4654171466827393e-02 5.6656908988952637e-01</leafValues></_>
        <_>
          <internalNodes>
            0 -1 431 2.0402311347424984e-03</internalNodes>
          <leafValues>
            7.1312509477138519e-02 -5.5776816606521606e-01</leafValues></_></weakClassifiers></_>
    <!-- stage 7 -->
    <_>
      <maxWeakCount>29</maxWeakCount>
      <stageThreshold>-1.0648347139358521e+00</stageThreshold>
      <weakClassifiers>
        <_>
          <internalNodes>
            0 -1 91 -3.6768191494047642e-03</internalNodes>
          <leafValues>
            4.0760388970375061e-01 -2.7621328830718994e-01</leafValues></_>
        <_>
          <internalNodes>
            0 -1 68 -3.4753739833831787e-01</internalNodes>
          <leafValues>
            2.7606779336929321e-01 -3.4050431847572327e-01</leafValues></_>
        <_>
          <internalNodes>
            0 -1 40 4.9246028065681458e-02</internalNodes>
          <leafValues>
            -2.8550329804420471e-01 2.9770392179489136e-01</leafValues></_>
        <_>
          <internalNodes>
            0 -1 352 -2.5433771312236786e-02</internalNodes>
          <leafValues>
            2.1491736173629761e-01 -3.3266839385032654e-01</leafValues></_>
        <_>
          <internalNodes>
            0 -1 25 6.6240683197975159e-02</internalNodes>
          <leafValues>
            8.6249701678752899e-02 -9.8855167627334595e-01</leafValues></_>
        <_>
          <internalNodes>
            0 -1 610 -3.1668373849242926e-03</internalNodes>
          <leafValues>
            3.5307139158248901e-01 -1.8650527298450470e-01</leafValues></_>
        <_>
          <internalNodes>
            0 -1 246 4.3110586702823639e-02</internalNodes>
          <leafValues>
            -1.2889014184474945e-01 3.9722922444343567e-01</leafValues></_>
        <_>
          <internalNodes>
            0 -1 199 -4.9075268208980560e-02</internalNodes>
          <leafValues>
            4.5616039633750916e-01 -1.1883787810802460e-01</leafValues></_>
        <_>
          <internalNodes>
            0 -1 80 -3.8162637501955032e-02</internalNodes>
          <leafValues>
            -9.0152180194854736e-01 5.6491382420063019e-02</leafValues></_>
        <_>
          <internalNodes>
            0 -1 425 2.5817034766077995e-02</internalNodes>
          <leafValues>
            3.6946572363376617e-02 -8.8196957111358643e-01</leafValues></_>
        <_>
          <internalNodes>
            0 -1 484 -5.8890655636787415e-03</internalNodes>
          <leafValues>
            2.7929681539535522e-01 -1.6964340209960938e-01</leafValues></_>
        <_>
          <internalNodes>
            0 -1 78 -3.4841712564229965e-02</internalNodes>
          <leafValues>
            -8.4866034984588623e-01 5.6235093623399734e-02</leafValues></_>
        <_>
          <internalNodes>
            0 -1 360 -4.7155678272247314e-02</internalNodes>
          <leafValues>
            5.1398068666458130e-01 -9.7674302756786346e-02</leafValues></_>
        <_>
          <internalNodes>
            0 -1 50 7.6578431762754917e-03</internalNodes>
          <leafValues>
            -1.0043613612651825e-01 3.8176029920578003e-01</leafValues></_>
        <_>
          <internalNodes>
            0 -1 240 -3.9247740060091019e-02</internalNodes>
          <leafValues>
            4.8694646358489990e-01 -9.5891028642654419e-02</leafValues></_>
        <_>
          <internalNodes>
            0 -1 442 -4.1785903275012970e-02</internalNodes>
          <leafValues>
            4.6509844064712524e-01 -9.0462401509284973e-02</leafValues></_>
        <_>
          <internalNodes>
            0 -1 129 -3.6079537123441696e-02</internalNodes>
          <leafValues>
            -9.3014484643936157e-01 4.9812406301498413e-02</leafValues></_>
        <_>
          <internalNodes>
            0 -1 487 1.8103707581758499e-02</internalNodes>
          <leafValues>
            -1.6025345027446747e-01 2.6852059364318848e-01</leafValues></_>
        <_>
          <internalNodes>
            0 -1 255 -3.8335613906383514e-02</internalNodes>
          <leafValues>
            4.5185554027557373e-01 -1.0229424387216568e-01</leafValues></_>
        <_>
          <internalNodes>
            0 -1 54 -1.3212464749813080e-01</internalNodes>
          <leafValues>
            -7.4482655525207520e-01 6.2913648784160614e-02</leafValues></_>
        <_>
          <internalNodes>
            0 -1 405 1.6254981979727745e-02</internalNodes>
          <leafValues>
            -1.4085681736469269e-01 2.9767185449600220e-01</leafValues></_>
        <_>
          <internalNodes>
            0 -1 410 -1.6690057236701250e-04</internalNodes>
          <leafValues>
            -2.8984546661376953e-01 1.4514653384685516e-01</leafValues></_>
        <_>
          <internalNodes>
            0 -1 46 2.0067252218723297e-02</internalNodes>
          <leafValues>
            -1.4367109537124634e-01 2.7434799075126648e-01</leafValues></_>
        <_>
          <internalNodes>
            0 -1 248 9.2991068959236145e-03</internalNodes>
          <leafValues>
            -2.3461644351482391e-01 2.2838911414146423e-01</leafValues></_>
        <_>
          <internalNodes>
            0 -1 15 5.1070272922515869e-01</internalNodes>
          <leafValues>
            8.1828005611896515e-02 -6.1112916469573975e-01</leafValues></_>
        <_>
          <internalNodes>
            0 -1 611 -4.4814972206950188e-03</internalNodes>
          <leafValues>
            -5.2860367298126221e-01 7.1129523217678070e-02</leafValues></_>
        <_>
          <internalNodes>
            0 -1 415 -1.0671826021280140e-04</internalNodes>
          <leafValues>
            -2.3544684052467346e-01 1.7426757514476776e-01</leafValues></_>
        <_>
          <internalNodes>
            0 -1 41 -7.5058832764625549e-02</internalNodes>
          <leafValues>
            1.5956574678421021e-01 -2.6287469267845154e-01</leafValues></_>
        <_>
          <internalNodes>
            0 -1 35 4.8300287127494812e-01</internalNodes>
          <leafValues>
            -6.1064142733812332e-02 8.2123392820358276e-01</leafValues></_></weakClassifiers></_>
    <!-- stage 8 -->
    <_>
      <maxWeakCount>40</maxWeakCount>
      <stageThreshold>-1.1118537187576294e+00</stageThreshold>
      <weakClassifiers>
        <_>
          <internalNodes>
            0 -1 515 1.8142454326152802e-02</internalNodes>
          <leafValues>
            -3.1319764256477356e-01 3.7353172898292542e-01</leafValues></_>
        <_>
          <internalNodes>
            0 -1 210 4.7220278531312943e-02</internalNodes>
          <leafValues>
            -1.8510726094245911e-01 4.3066477775573730e-01</leafValues></_>
        <_>
          <internalNodes>
            0 -1 624 -7.2044465923681855e-05</internalNodes>
          <leafValues>
            1.9223947823047638e-01 -3.1986489892005920e-01</leafValues></_>
        <_>
          <internalNodes>
            0 -1 214 -4.3330475687980652e-02</internalNodes>
          <leafValues>
            5.1079773902893066e-01 -1.1640259623527527e-01</leafValues></_>
        <_>
          <internalNodes>
            0 -1 237 2.4756521452218294e-03</internalNodes>
          <leafValues>
            1.5727962553501129e-01 -3.5453110933303833e-01</leafValues></_>
        <_>
          <internalNodes>
            0 -1 566 9.6264025196433067e-03</internalNodes>
          <leafValues>
            -1.3731028139591217e-01 3.7091436982154846e-01</leafValues></_>
        <_>
          <internalNodes>
            0 -1 20 -2.5096207857131958e-02</internalNodes>
          <leafValues>
            -4.4034534692764282e-01 1.0233893245458603e-01</leafValues></_>
        <_>
          <internalNodes>
            0 -1 495 -4.7693290980532765e-04</internalNodes>
          <leafValues>
            -3.3381763100624084e-01 1.2968423962593079e-01</leafValues></_>
        <_>
          <internalNodes>
            0 -1 614 1.2139719910919666e-03</internalNodes>
          <leafValues>
            1.0032354295253754e-01 -4.9422916769981384e-01</leafValues></_>
        <_>
          <internalNodes>
            0 -1 511 -3.4924624487757683e-03</internalNodes>
          <leafValues>
            2.8799924254417419e-01 -1.5972548723220825e-01</leafValues></_>
        <_>
          <internalNodes>
            0 -1 86 -4.7523807734251022e-04</internalNodes>
          <leafValues>
            -2.6258778572082520e-01 1.5757749974727631e-01</leafValues></_>
        <_>
          <internalNodes>
            0 -1 201 4.2047455906867981e-02</internalNodes>
          <leafValues>
            -1.2526746094226837e-01 2.9377532005310059e-01</leafValues></_>
        <_>
          <internalNodes>
            0 -1 404 2.6006076484918594e-02</internalNodes>
          <leafValues>
            -1.4960221946239471e-01 3.3116024732589722e-01</leafValues></_>
        <_>
          <internalNodes>
            0 -1 310 4.4246718287467957e-02</internalNodes>
          <leafValues>
            -9.3934662640094757e-02 3.8434159755706787e-01</leafValues></_>
        <_>
          <internalNodes>
            0 -1 86 1.0036211460828781e-03</internalNodes>
          <leafValues>
            9.8842166364192963e-02 -4.4755259156227112e-01</leafValues></_>
        <_>
          <internalNodes>
            0 -1 94 -8.1336955190636218e-05</internalNodes>
          <leafValues>
            1.6490826010704041e-01 -2.5000298023223877e-01</leafValues></_>
        <_>
          <internalNodes>
            0 -1 449 -7.9581804573535919e-02</internalNodes>
          <leafValues>
            7.2148489952087402e-01 -5.4090250283479691e-02</leafValues></_>
        <_>
          <internalNodes>
            0 -1 620 1.2274752371013165e-03</internalNodes>
          <leafValues>
            1.1185912042856216e-01 -3.5679996013641357e-01</leafValues></_>
        <_>
          <internalNodes>
            0 -1 559 1.6275763045996428e-03</internalNodes>
          <leafValues>
            8.4602653980255127e-02 -3.8032829761505127e-01</leafValues></_>
        <_>
          <internalNodes>
            0 -1 139 -9.4258075114339590e-04</internalNodes>
          <leafValues>
            -3.9465466141700745e-01 8.0847308039665222e-02</leafValues></_>
        <_>
          <internalNodes>
            0 -1 96 1.2322799302637577e-02</internalNodes>
          <leafValues>
            -9.5280066132545471e-02 3.4431344270706177e-01</leafValues></_>
        <_>
          <internalNodes>
            0 -1 153 -4.2271241545677185e-02</internalNodes>
          <leafValues>
            3.5116356611251831e-01 -9.7751826047897339e-02</leafValues></_>
        <_>
          <internalNodes>
            0 -1 177 3.8970477879047394e-02</internalNodes>
          <leafValues>
            -7.7053427696228027e-02 4.2505094408988953e-01</leafValues></_>
        <_>
          <internalNodes>
            0 -1 328 1.8235776573419571e-02</internalNodes>
          <leafValues>
            -1.4194762706756592e-01 2.4819047749042511e-01</leafValues></_>
        <_>
          <internalNodes>
            0 -1 375 7.4200173839926720e-03</internalNodes>
          <leafValues>
            6.1295211315155029e-02 -6.2246376276016235e-01</leafValues></_>
        <_>
          <internalNodes>
            0 -1 469 1.1151077225804329e-02</internalNodes>
          <leafValues>
            -1.3727633655071259e-01 2.5999850034713745e-01</leafValues></_>
        <_>
          <internalNodes>
            0 -1 109 -4.9337705969810486e-01</internalNodes>
          <leafValues>
            2.7049466967582703e-01 -1.4715710282325745e-01</leafValues></_>
        <_>
          <internalNodes>
            0 -1 58 -6.9855630397796631e-01</internalNodes>
          <leafValues>
            -5.1662170886993408e-01 6.1141870915889740e-02</leafValues></_>
        <_>
          <internalNodes>
            0 -1 227 -2.2215871140360832e-03</internalNodes>
          <leafValues>
            -5.0557678937911987e-01 6.3867710530757904e-02</leafValues></_>
        <_>
          <internalNodes>
            0 -1 178 1.9740101695060730e-01</internalNodes>
          <leafValues>
            4.1174393147230148e-02 -6.6979157924652100e-01</leafValues></_>
        <_>
          <internalNodes>
            0 -1 101 5.7027947902679443e-01</internalNodes>
          <leafValues>
            3.6927506327629089e-02 -7.2450786828994751e-01</leafValues></_>
        <_>
          <internalNodes>
            0 -1 67 -4.4955991208553314e-02</internalNodes>
          <leafValues>
            -1. 2.4294726550579071e-02</leafValues></_>
        <_>
          <internalNodes>
            0 -1 590 -6.2810191884636879e-03</internalNodes>
          <leafValues>
            3.5491803288459778e-01 -9.3988731503486633e-02</leafValues></_>
        <_>
          <internalNodes>
            0 -1 288 7.9941563308238983e-03</internalNodes>
          <leafValues>
            -1.7913056910037994e-01 1.8718279898166656e-01</leafValues></_>
        <_>
          <internalNodes>
            0 -1 406 -5.5811956524848938e-02</internalNodes>
          <leafValues>
            4.5497292280197144e-01 -7.7312223613262177e-02</leafValues></_>
        <_>
          <internalNodes>
            0 -1 188 2.9847279191017151e-02</internalNodes>
          <leafValues>
            -8.9778773486614227e-02 3.3602491021156311e-01</leafValues></_>
        <_>
          <internalNodes>
            0 -1 466 -9.4206858193501830e-05</internalNodes>
          <leafValues>
            1.1424326896667480e-01 -2.8651669621467590e-01</leafValues></_>
        <_>
          <internalNodes>
            0 -1 114 3.5473215579986572e-01</internalNodes>
          <leafValues>
            -6.1270996928215027e-02 7.8066062927246094e-01</leafValues></_>
        <_>
          <internalNodes>
            0 -1 295 3.6504349112510681e-01</internalNodes>
          <leafValues>
            6.1667636036872864e-02 -7.6260322332382202e-01</leafValues></_>
        <_>
          <internalNodes>
            0 -1 501 8.2707585534080863e-05</internalNodes>
          <leafValues>
            -1.9594280421733856e-01 1.7485961318016052e-01</leafValues></_></weakClassifiers></_>
    <!-- stage 9 -->
    <_>
      <maxWeakCount>46</maxWeakCount>
      <stageThreshold>-1.2343246936798096e+00</stageThreshold>
      <weakClassifiers>
        <_>
          <internalNodes>
            0 -1 542 -1.1658435687422752e-02</internalNodes>
          <leafValues>
            4.6285715699195862e-01 -2.1038961410522461e-01</leafValues></_>
        <_>
          <internalNodes>
            0 -1 139 -3.5069657315034419e-05</internalNodes>
          <leafValues>
            2.4798388779163361e-01 -3.1651142239570618e-01</leafValues></_>
        <_>
          <internalNodes>
            0 -1 557 9.1921346029266715e-04</internalNodes>
          <leafValues>
            1.0352869331836700e-01 -6.4041179418563843e-01</leafValues></_>
        <_>
          <internalNodes>
            0 -1 356 3.6545515060424805e-02</internalNodes>
          <leafValues>
            -1.5726548433303833e-01 3.9828783273696899e-01</leafValues></_>
        <_>
          <internalNodes>
            0 -1 298 -3.9912309497594833e-02</internalNodes>
          <leafValues>
            4.4059270620346069e-01 -1.3807038962841034e-01</leafValues></_>
        <_>
          <internalNodes>
            0 -1 139 -8.6753640789538622e-04</internalNodes>
          <leafValues>
            -4.6899315714836121e-01 1.2040271610021591e-01</leafValues></_>
        <_>
          <internalNodes>
            0 -1 422 2.3075096309185028e-02</internalNodes>
          <leafValues>
            -1.4967601001262665e-01 3.4109938144683838e-01</leafValues></_>
        <_>
          <internalNodes>
            0 -1 266 2.8839720413088799e-02</internalNodes>
          <leafValues>
            -1.4713969826698303e-01 3.8942435383796692e-01</leafValues></_>
        <_>
          <internalNodes>
            0 -1 493 -7.4688461609184742e-05</internalNodes>
          <leafValues>
            1.6813272237777710e-01 -3.0616569519042969e-01</leafValues></_>
        <_>
          <internalNodes>
            0 -1 364 -5.6443080306053162e-02</internalNodes>
          <leafValues>
            5.7566964626312256e-01 -8.4341734647750854e-02</leafValues></_>
        <_>
          <internalNodes>
            0 -1 9 9.3584852293133736e-03</internalNodes>
          <leafValues>
            -1.2911055982112885e-01 3.5006752610206604e-01</leafValues></_>
        <_>
          <internalNodes>
            0 -1 343 1.0139599908143282e-03</internalNodes>
          <leafValues>
            8.5624836385250092e-02 -4.6264731884002686e-01</leafValues></_>
        <_>
          <internalNodes>
            0 -1 286 6.9910648744553328e-04</internalNodes>
          <leafValues>
            1.0045567154884338e-01 -3.8298287987709045e-01</leafValues></_>
        <_>
          <internalNodes>
            0 -1 6 1.0556504130363464e-03</internalNodes>
          <leafValues>
            1.2717404961585999e-01 -2.9063212871551514e-01</leafValues></_>
        <_>
          <internalNodes>
            0 -1 5 -2.1549887023866177e-03</internalNodes>
          <leafValues>
            -3.8784524798393250e-01 1.0572398453950882e-01</leafValues></_>
        <_>
          <internalNodes>
            0 -1 7 1.8418376566842198e-03</internalNodes>
          <leafValues>
            2.1176309883594513e-01 -1.8265803158283234e-01</leafValues></_>
        <_>
          <internalNodes>
            0 -1 193 -1.6036275774240494e-02</internalNodes>
          <leafValues>
            4.3490847945213318e-01 -9.1886393725872040e-02</leafValues></_>
        <_>
          <internalNodes>
            0 -1 346 -2.8944024816155434e-03</internalNodes>
          <leafValues>
            -6.5923100709915161e-01 6.4561076462268829e-02</leafValues></_>
        <_>
          <internalNodes>
            0 -1 38 1.0617036372423172e-02</internalNodes>
          <leafValues>
            -1.0226593911647797e-01 3.8269126415252686e-01</leafValues></_>
        <_>
          <internalNodes>
            0 -1 51 -1.0318181477487087e-02</internalNodes>
          <leafValues>
            3.9904090762138367e-01 -9.2112988233566284e-02</leafValues></_>
        <_>
          <internalNodes>
            0 -1 185 -6.5857995650731027e-05</internalNodes>
          <leafValues>
            1.7489446699619293e-01 -1.8795657157897949e-01</leafValues></_>
        <_>
          <internalNodes>
            0 -1 416 -4.3795548379421234e-02</internalNodes>
          <leafValues>
            5.4126489162445068e-01 -5.6144546717405319e-02</leafValues></_>
        <_>
          <internalNodes>
            0 -1 155 -1.5894544124603271e-01</internalNodes>
          <leafValues>
            -4.9086540937423706e-01 7.7834278345108032e-02</leafValues></_>
        <_>
          <internalNodes>
            0 -1 316 -3.3732935786247253e-02</internalNodes>
          <leafValues>
            4.1857010126113892e-01 -9.6527568995952606e-02</leafValues></_>
        <_>
          <internalNodes>
            0 -1 430 1.7929675523191690e-03</internalNodes>
          <leafValues>
            4.9051966518163681e-02 -6.4220118522644043e-01</leafValues></_>
        <_>
          <internalNodes>
            0 -1 543 2.3259833455085754e-02</internalNodes>
          <leafValues>
            -1.1197411268949509e-01 3.0466380715370178e-01</leafValues></_>
        <_>
          <internalNodes>
            0 -1 600 6.0190574731677771e-04</internalNodes>
          <leafValues>
            8.2077518105506897e-02 -4.1327953338623047e-01</leafValues></_>
        <_>
          <internalNodes>
            0 -1 305 -5.1603609323501587e-01</internalNodes>
          <leafValues>
            -8.3342105150222778e-01 3.3710762858390808e-02</leafValues></_>
        <_>
          <internalNodes>
            0 -1 558 -9.2036800924688578e-04</internalNodes>
          <leafValues>
            -2.0446328818798065e-01 1.5485255420207977e-01</leafValues></_>
        <_>
          <internalNodes>
            0 -1 407 -3.0991225503385067e-04</internalNodes>
          <leafValues>
            -2.8389140963554382e-01 1.2175908684730530e-01</leafValues></_>
        <_>
          <internalNodes>
            0 -1 453 -8.6951285600662231e-02</internalNodes>
          <leafValues>
            -5.1679742336273193e-01 7.6595492660999298e-02</leafValues></_>
        <_>
          <internalNodes>
            0 -1 531 1.4007421210408211e-02</internalNodes>
          <leafValues>
            -1.0689362138509750e-01 3.1133127212524414e-01</leafValues></_>
        <_>
          <internalNodes>
            0 -1 138 1.7654655966907740e-03</internalNodes>
          <leafValues>
            8.7248325347900391e-02 -3.9141851663589478e-01</leafValues></_>
        <_>
          <internalNodes>
            0 -1 607 -5.1097064279019833e-03</internalNodes>
          <leafValues>
            1.7781952023506165e-01 -1.9461050629615784e-01</leafValues></_>
        <_>
          <internalNodes>
            0 -1 563 -3.9007854647934437e-03</internalNodes>
          <leafValues>
            4.1188830137252808e-01 -9.2724427580833435e-02</leafValues></_>
        <_>
          <internalNodes>
            0 -1 391 2.8008054941892624e-03</internalNodes>
          <leafValues>
            7.8901641070842743e-02 -4.4316065311431885e-01</leafValues></_>
        <_>
          <internalNodes>
            0 -1 535 1.5446828911080956e-04</internalNodes>
          <leafValues>
            -1.8804220855236053e-01 1.8568153679370880e-01</leafValues></_>
        <_>
          <internalNodes>
            0 -1 429 -1.0451497510075569e-03</internalNodes>
          <leafValues>
            -4.4159150123596191e-01 7.8915759921073914e-02</leafValues></_>
        <_>
          <internalNodes>
            0 -1 519 -4.0703997015953064e-02</internalNodes>
          <leafValues>
            3.5989797115325928e-01 -9.7293995320796967e-02</leafValues></_>
        <_>
          <internalNodes>
            0 -1 171 -2.8025807812809944e-02</internalNodes>
          <leafValues>
            3.6868622899055481e-01 -8.2606039941310883e-02</leafValues></_>
        <_>
          <internalNodes>
            0 -1 587 -7.9577993601560593e-03</internalNodes>
          <leafValues>
            3.3111578226089478e-01 -8.9060887694358826e-02</leafValues></_>
        <_>
          <internalNodes>
            0 -1 334 5.6120781227946281e-03</internalNodes>
          <leafValues>
            -1.3949489593505859e-01 2.4006941914558411e-01</leafValues></_>
        <_>
          <internalNodes>
            0 -1 280 -2.1570898592472076e-02</internalNodes>
          <leafValues>
            6.0195481777191162e-01 -6.8887434899806976e-02</leafValues></_>
        <_>
          <internalNodes>
            0 -1 622 -8.6510844994336367e-05</internalNodes>
          <leafValues>
            1.5864193439483643e-01 -2.0731845498085022e-01</leafValues></_>
        <_>
          <internalNodes>
            0 -1 434 3.7581184878945351e-03</internalNodes>
          <leafValues>
            7.8248985111713409e-02 -3.5901564359664917e-01</leafValues></_>
        <_>
          <internalNodes>
            0 -1 585 1.3322599232196808e-02</internalNodes>
          <leafValues>
            -1.0415145009756088e-01 3.1414929032325745e-01</leafValues></_></weakClassifiers></_>
    <!-- stage 10 -->
    <_>
      <maxWeakCount>36</maxWeakCount>
      <stageThreshold>-1.2182757854461670e+00</stageThreshold>
      <weakClassifiers>
        <_>
          <internalNodes>
            0 -1 139 -8.1352292909286916e-05</internalNodes>
          <leafValues>
            2.4574209749698639e-01 -3.4948095679283142e-01</leafValues></_>
        <_>
          <internalNodes>
            0 -1 239 7.0459477603435516e-02</internalNodes>
          <leafValues>
            -2.0256656408309937e-01 3.6540558934211731e-01</leafValues></_>
        <_>
          <internalNodes>
            0 -1 126 -1.8463726341724396e-01</internalNodes>
          <leafValues>
            1.3889643549919128e-01 -4.8807245492935181e-01</leafValues></_>
        <_>
          <internalNodes>
            0 -1 371 3.0539602041244507e-02</internalNodes>
          <leafValues>
            -1.4133325219154358e-01 4.2684358358383179e-01</leafValues></_>
        <_>
          <internalNodes>
            0 -1 217 2.7153164148330688e-02</internalNodes>
          <leafValues>
            -2.5709927082061768e-01 4.1417041420936584e-01</leafValues></_>
        <_>
          <internalNodes>
            0 -1 79 9.7577720880508423e-03</internalNodes>
          <leafValues>
            -1.7692242562770844e-01 3.4047916531562805e-01</leafValues></_>
        <_>
          <internalNodes>
            0 -1 618 4.3584470404312015e-04</internalNodes>
          <leafValues>
            1.8949764966964722e-01 -3.1152081489562988e-01</leafValues></_>
        <_>
          <internalNodes>
            0 -1 616 -1.6515200259163976e-03</internalNodes>
          <leafValues>
            -3.9258825778961182e-01 1.1991583555936813e-01</leafValues></_>
        <_>
          <internalNodes>
            0 -1 139 -5.9776887064799666e-04</internalNodes>
          <leafValues>
            -3.3306580781936646e-01 1.3334864377975464e-01</leafValues></_>
        <_>
          <internalNodes>
            0 -1 148 3.4424975514411926e-02</internalNodes>
          <leafValues>
            -1.7373770475387573e-01 3.5177284479141235e-01</leafValues></_>
        <_>
          <internalNodes>
            0 -1 289 2.9500741511583328e-02</internalNodes>
          <leafValues>
            -1.2962746620178223e-01 3.0371683835983276e-01</leafValues></_>
        <_>
          <internalNodes>
            0 -1 342 -1.4318136963993311e-03</internalNodes>
          <leafValues>
            1.7813915014266968e-01 -2.4241276085376740e-01</leafValues></_>
        <_>
          <internalNodes>
            0 -1 256 7.2159484261646867e-05</internalNodes>
          <leafValues>
            -2.4774405360221863e-01 1.8109509348869324e-01</leafValues></_>
        <_>
          <internalNodes>
            0 -1 432 2.0741429179906845e-03</internalNodes>
          <leafValues>
            7.2715699672698975e-02 -6.1389809846878052e-01</leafValues></_>
        <_>
          <internalNodes>
            0 -1 143 1.6760289669036865e-01</internalNodes>
          <leafValues>
            5.1456950604915619e-02 -5.2371007204055786e-01</leafValues></_>
        <_>
          <internalNodes>
            0 -1 354 -1.9202832132577896e-02</internalNodes>
          <leafValues>
            6.4080762863159180e-01 -5.5756751447916031e-02</leafValues></_>
        <_>
          <internalNodes>
            0 -1 287 -2.4486277252435684e-03</internalNodes>
          <leafValues>
            -5.2607202529907227e-01 8.8355854153633118e-02</leafValues></_>
        <_>
          <internalNodes>
            0 -1 244 3.3018365502357483e-02</internalNodes>
          <leafValues>
            -1.5455830097198486e-01 2.6721429824829102e-01</leafValues></_>
        <_>
          <internalNodes>
            0 -1 233 -2.7374038472771645e-02</internalNodes>
          <leafValues>
            4.7031396627426147e-01 -1.2740392982959747e-01</leafValues></_>
        <_>
          <internalNodes>
            0 -1 625 -7.0712390879634768e-05</internalNodes>
          <leafValues>
            1.5649427473545074e-01 -2.6067709922790527e-01</leafValues></_>
        <_>
          <internalNodes>
            0 -1 625 -2.1130267996340990e-03</internalNodes>
          <leafValues>
            -4.2262026667594910e-01 9.4501890242099762e-02</leafValues></_>
        <_>
          <internalNodes>
            0 -1 353 6.8463962525129318e-03</internalNodes>
          <leafValues>
            -1.2904751300811768e-01 2.9280129075050354e-01</leafValues></_>
        <_>
          <internalNodes>
            0 -1 22 -2.9217055439949036e-01</internalNodes>
          <leafValues>
            -6.7597168684005737e-01 5.2039895206689835e-02</leafValues></_>
        <_>
          <internalNodes>
            0 -1 226 6.6616330295801163e-03</internalNodes>
          <leafValues>
            3.3570364117622375e-02 -8.2986837625503540e-01</leafValues></_>
        <_>
          <internalNodes>
            0 -1 170 -8.7163224816322327e-03</internalNodes>
          <leafValues>
            3.6187598109245300e-01 -1.0545799881219864e-01</leafValues></_>
        <_>
          <internalNodes>
            0 -1 600 -8.1559002865105867e-04</internalNodes>
          <leafValues>
            -3.3126232028007507e-01 1.1176466196775436e-01</leafValues></_>
        <_>
          <internalNodes>
            0 -1 13 4.1159787774085999e-01</internalNodes>
          <leafValues>
            4.7601863741874695e-02 -5.8956187963485718e-01</leafValues></_>
        <_>
          <internalNodes>
            0 -1 60 2.3673303425312042e-02</internalNodes>
          <leafValues>
            -2.1869990229606628e-01 2.0790556073188782e-01</leafValues></_>
        <_>
          <internalNodes>
            0 -1 498 2.1934723481535912e-02</internalNodes>
          <leafValues>
            -1.2103848904371262e-01 2.8935581445693970e-01</leafValues></_>
        <_>
          <internalNodes>
            0 -1 579 -5.9181696269661188e-04</internalNodes>
          <leafValues>
            -3.4294039011001587e-01 1.0871100425720215e-01</leafValues></_>
        <_>
          <internalNodes>
            0 -1 369 -1.3558991253376007e-02</internalNodes>
          <leafValues>
            2.7666157484054565e-01 -1.3707013428211212e-01</leafValues></_>
        <_>
          <internalNodes>
            0 -1 421 -1.3603445840999484e-03</internalNodes>
          <leafValues>
            -2.9559972882270813e-01 1.5059536695480347e-01</leafValues></_>
        <_>
          <internalNodes>
            0 -1 388 -2.8022023616358638e-04</internalNodes>
          <leafValues>
            -2.8576940298080444e-01 1.3106481730937958e-01</leafValues></_>
        <_>
          <internalNodes>
            0 -1 200 -5.1357749849557877e-02</internalNodes>
          <leafValues>
            5.8229213953018188e-01 -5.7112194597721100e-02</leafValues></_>
        <_>
          <internalNodes>
            0 -1 39 3.7095829844474792e-02</internalNodes>
          <leafValues>
            -9.2895001173019409e-02 3.6671420931816101e-01</leafValues></_>
        <_>
          <internalNodes>
            0 -1 395 -1.6322422027587891e-01</internalNodes>
          <leafValues>
            4.9487635493278503e-01 -6.3656769692897797e-02</leafValues></_></weakClassifiers></_>
    <!-- stage 11 -->
    <_>
      <maxWeakCount>21</maxWeakCount>
      <stageThreshold>-1.2234106063842773e+00</stageThreshold>
      <weakClassifiers>
        <_>
          <internalNodes>
            0 -1 517 -4.1241966187953949e-02</internalNodes>
          <leafValues>
            4.3999999761581421e-01 -3.4222221374511719e-01</leafValues></_>
        <_>
          <internalNodes>
            0 -1 419 -8.8084794697351754e-05</internalNodes>
          <leafValues>
            2.2170065343379974e-01 -4.7229924798011780e-01</leafValues></_>
        <_>
          <internalNodes>
            0 -1 19 1.4288868755102158e-02</internalNodes>
          <leafValues>
            -3.3510020375251770e-01 2.6660951972007751e-01</leafValues></_>
        <_>
          <internalNodes>
            0 -1 175 -7.9352685133926570e-05</internalNodes>
          <leafValues>
            2.4756586551666260e-01 -3.3718210458755493e-01</leafValues></_>
        <_>
          <internalNodes>
            0 -1 530 -3.6539979191729799e-05</internalNodes>
          <leafValues>
            1.6097360849380493e-01 -3.9936187863349915e-01</leafValues></_>
        <_>
          <internalNodes>
            0 -1 540 -9.3202362768352032e-04</internalNodes>
          <leafValues>
            2.8112486004829407e-01 -2.7401793003082275e-01</leafValues></_>
        <_>
          <internalNodes>
            0 -1 466 -2.4789022281765938e-03</internalNodes>
          <leafValues>
            -4.7154042124748230e-01 1.6078579425811768e-01</leafValues></_>
        <_>
          <internalNodes>
            0 -1 525 4.6953231096267700e-02</internalNodes>
          <leafValues>
            -1.5806427597999573e-01 3.7910881638526917e-01</leafValues></_>
        <_>
          <internalNodes>
            0 -1 528 -8.3761777204927057e-05</internalNodes>
          <leafValues>
            1.8615654110908508e-01 -3.3510079979896545e-01</leafValues></_>
        <_>
          <internalNodes>
            0 -1 63 2.0159566774964333e-03</internalNodes>
          <leafValues>
            1.2437708675861359e-01 -5.0813221931457520e-01</leafValues></_>
        <_>
          <internalNodes>
            0 -1 411 -2.6915866881608963e-02</internalNodes>
          <leafValues>
            -9.3496167659759521e-01 5.2827686071395874e-02</leafValues></_>
        <_>
          <internalNodes>
            0 -1 176 7.3932395025622100e-05</internalNodes>
          <leafValues>
            -2.4171945452690125e-01 2.0251007378101349e-01</leafValues></_>
        <_>
          <internalNodes>
            0 -1 36 -1.8372151535004377e-03</internalNodes>
          <leafValues>
            -6.5389657020568848e-01 6.2080182135105133e-02</leafValues></_>
        <_>
          <internalNodes>
            0 -1 258 6.9816871546208858e-03</internalNodes>
          <leafValues>
            7.8355297446250916e-02 -5.7195818424224854e-01</leafValues></_>
        <_>
          <internalNodes>
            0 -1 149 1.0753408074378967e-01</internalNodes>
          <leafValues>
            -1.4280349016189575e-01 4.0281742811203003e-01</leafValues></_>
        <_>
          <internalNodes>
            0 -1 30 -2.2563771344721317e-03</internalNodes>
          <leafValues>
            -4.7015875577926636e-01 1.1201537400484085e-01</leafValues></_>
        <_>
          <internalNodes>
            0 -1 180 1.8094286322593689e-02</internalNodes>
          <leafValues>
            -7.5749188661575317e-02 6.6035556793212891e-01</leafValues></_>
        <_>
          <internalNodes>
            0 -1 251 1.4170745015144348e-01</internalNodes>
          <leafValues>
            -1.1309557408094406e-01 4.5539158582687378e-01</leafValues></_>
        <_>
          <internalNodes>
            0 -1 380 3.9513590309070423e-05</internalNodes>
          <leafValues>
            -2.4299634993076324e-01 2.2928281128406525e-01</leafValues></_>
        <_>
          <internalNodes>
            0 -1 151 -4.6338844299316406e-01</internalNodes>
          <leafValues>
            3.3508643507957458e-01 -2.0004484057426453e-01</leafValues></_>
        <_>
          <internalNodes>
            0 -1 532 -2.5388214271515608e-03</internalNodes>
          <leafValues>
            1.9814027845859528e-01 -2.5191485881805420e-01</leafValues></_></weakClassifiers></_>
    <!-- stage 12 -->
    <_>
      <maxWeakCount>29</maxWeakCount>
      <stageThreshold>-1.1497679948806763e+00</stageThreshold>
      <weakClassifiers>
        <_>
          <internalNodes>
            0 -1 28 3.7044894695281982e-01</internalNodes>
          <leafValues>
            -3.8608059287071228e-01 3.6724737286567688e-01</leafValues></_>
        <_>
          <internalNodes>
            0 -1 107 9.4443082809448242e-02</internalNodes>
          <leafValues>
            -3.1634405255317688e-01 2.8693485260009766e-01</leafValues></_>
        <_>
          <internalNodes>
            0 -1 282 -1.0716708377003670e-02</internalNodes>
          <leafValues>
            1.8113955855369568e-01 -4.2685243487358093e-01</leafValues></_>
        <_>
          <internalNodes>
            0 -1 325 -1.7649255460128188e-04</internalNodes>
          <leafValues>
            1.7903648316860199e-01 -3.5950356721878052e-01</leafValues></_>
        <_>
          <internalNodes>
            0 -1 614 7.5916737841907889e-05</internalNodes>
          <leafValues>
            -2.3685647547245026e-01 2.0196658372879028e-01</leafValues></_>
        <_>
          <internalNodes>
            0 -1 433 -1.9593934994190931e-03</internalNodes>
          <leafValues>
            -5.5650728940963745e-01 7.9490199685096741e-02</leafValues></_>
        <_>
          <internalNodes>
            0 -1 603 -7.6080770231783390e-03</internalNodes>
          <leafValues>
            2.1021927893161774e-01 -2.1969260275363922e-01</leafValues></_>
        <_>
          <internalNodes>
            0 -1 380 3.9513590309070423e-05</internalNodes>
          <leafValues>
            -2.3921084403991699e-01 1.9470499455928802e-01</leafValues></_>
        <_>
          <internalNodes>
            0 -1 81 -2.4336380884051323e-03</internalNodes>
          <leafValues>
            -4.3607416749000549e-01 1.1264392733573914e-01</leafValues></_>
        <_>
          <internalNodes>
            0 -1 384 2.0483843982219696e-02</internalNodes>
          <leafValues>
            -1.3672497868537903e-01 3.2910579442977905e-01</leafValues></_>
        <_>
          <internalNodes>
            0 -1 269 -2.0857825875282288e-02</internalNodes>
          <leafValues>
            2.5895664095878601e-01 -1.8334816396236420e-01</leafValues></_>
        <_>
          <internalNodes>
            0 -1 127 -2.4694416671991348e-02</internalNodes>
          <leafValues>
            4.1242444515228271e-01 -1.5488955378532410e-01</leafValues></_>
        <_>
          <internalNodes>
            0 -1 275 -4.9546011723577976e-04</internalNodes>
          <leafValues>
            2.5248879194259644e-01 -2.0998941361904144e-01</leafValues></_>
        <_>
          <internalNodes>
            0 -1 134 -3.3655673265457153e-02</internalNodes>
          <leafValues>
            -8.2789695262908936e-01 3.0279567465186119e-02</leafValues></_>
        <_>
          <internalNodes>
            0 -1 43 2.2799668367952108e-03</internalNodes>
          <leafValues>
            7.8076682984828949e-02 -4.6541082859039307e-01</leafValues></_>
        <_>
          <internalNodes>
            0 -1 55 -3.4433081746101379e-02</internalNodes>
          <leafValues>
            -9.5352208614349365e-01 3.5673052072525024e-02</leafValues></_>
        <_>
          <internalNodes>
            0 -1 113 -6.6277906298637390e-02</internalNodes>
          <leafValues>
            4.5117321610450745e-01 -1.1226864159107208e-01</leafValues></_>
        <_>
          <internalNodes>
            0 -1 31 -2.1142309531569481e-02</internalNodes>
          <leafValues>
            -5.8219581842422485e-01 7.5792439281940460e-02</leafValues></_>
        <_>
          <internalNodes>
            0 -1 81 -3.6539979191729799e-05</internalNodes>
          <leafValues>
            1.3775201141834259e-01 -2.5140249729156494e-01</leafValues></_>
        <_>
          <internalNodes>
            0 -1 192 2.5690842419862747e-02</internalNodes>
          <leafValues>
            -1.5229573845863342e-01 2.4526366591453552e-01</leafValues></_>
        <_>
          <internalNodes>
            0 -1 27 -1.8788909912109375e-01</internalNodes>
          <leafValues>
            7.2294378280639648e-01 -4.5916970819234848e-02</leafValues></_>
        <_>
          <internalNodes>
            0 -1 61 -1.9368793815374374e-02</internalNodes>
          <leafValues>
            -8.8856214284896851e-01 5.6136790663003922e-02</leafValues></_>
        <_>
          <internalNodes>
            0 -1 278 4.6262666583061218e-03</internalNodes>
          <leafValues>
            -1.7563945055007935e-01 2.0383243262767792e-01</leafValues></_>
        <_>
          <internalNodes>
            0 -1 184 4.9322871491312981e-03</internalNodes>
          <leafValues>
            -1.0000470280647278e-01 4.3317580223083496e-01</leafValues></_>
        <_>
          <internalNodes>
            0 -1 576 -2.8699878603219986e-03</internalNodes>
          <leafValues>
            -7.1596348285675049e-01 6.0648359358310699e-02</leafValues></_>
        <_>
          <internalNodes>
            0 -1 582 2.2619329392910004e-03</internalNodes>
          <leafValues>
            5.4474122822284698e-02 -5.6575268507003784e-01</leafValues></_>
        <_>
          <internalNodes>
            0 -1 24 2.4751286953687668e-02</internalNodes>
          <leafValues>
            -1.4049237966537476e-01 2.7499082684516907e-01</leafValues></_>
        <_>
          <internalNodes>
            0 -1 592 -3.7772874347865582e-03</internalNodes>
          <leafValues>
            2.9418408870697021e-01 -1.2202160060405731e-01</leafValues></_>
        <_>
          <internalNodes>
            0 -1 621 2.0017339847981930e-03</internalNodes>
          <leafValues>
            8.6563870310783386e-02 -4.1562327742576599e-01</leafValues></_></weakClassifiers></_>
    <!-- stage 13 -->
    <_>
      <maxWeakCount>37</maxWeakCount>
      <stageThreshold>-1.0439479351043701e+00</stageThreshold>
      <weakClassifiers>
        <_>
          <internalNodes>
            0 -1 131 -2.0783436298370361e-01</internalNodes>
          <leafValues>
            2.4291741847991943e-01 -3.5319894552230835e-01</leafValues></_>
        <_>
          <internalNodes>
            0 -1 90 -3.6672190763056278e-03</internalNodes>
          <leafValues>
            3.3186474442481995e-01 -2.0170898735523224e-01</leafValues></_>
        <_>
          <internalNodes>
            0 -1 10 3.8505196571350098e-02</internalNodes>
          <leafValues>
            -3.1366947293281555e-01 2.1108603477478027e-01</leafValues></_>
        <_>
          <internalNodes>
            0 -1 218 -8.3539205661509186e-05</internalNodes>
          <leafValues>
            1.9521138072013855e-01 -3.4386119246482849e-01</leafValues></_>
        <_>
          <internalNodes>
            0 -1 602 1.1939795222133398e-03</internalNodes>
          <leafValues>
            7.0271551609039307e-02 -5.0838428735733032e-01</leafValues></_>
        <_>
          <internalNodes>
            0 -1 602 -1.2654413003474474e-03</internalNodes>
          <leafValues>
            -3.2201048731803894e-01 1.6488769650459290e-01</leafValues></_>
        <_>
          <internalNodes>
            0 -1 507 -8.6667673895135522e-04</internalNodes>
          <leafValues>
            1.3760332763195038e-01 -2.5948670506477356e-01</leafValues></_>
        <_>
          <internalNodes>
            0 -1 274 -3.4826193004846573e-02</internalNodes>
          <leafValues>
            3.5089549422264099e-01 -1.2922413647174835e-01</leafValues></_>
        <_>
          <internalNodes>
            0 -1 262 -3.2191414386034012e-02</internalNodes>
          <leafValues>
            3.7193104624748230e-01 -1.4488419890403748e-01</leafValues></_>
        <_>
          <internalNodes>
            0 -1 599 -7.4358342681080103e-04</internalNodes>
          <leafValues>
            -4.4895768165588379e-01 1.0342574119567871e-01</leafValues></_>
        <_>
          <internalNodes>
            0 -1 21 8.3390669897198677e-04</internalNodes>
          <leafValues>
            -2.5150299072265625e-01 1.5259228646755219e-01</leafValues></_>
        <_>
          <internalNodes>
            0 -1 397 1.5214379876852036e-02</internalNodes>
          <leafValues>
            -1.2463700026273727e-01 2.9821169376373291e-01</leafValues></_>
        <_>
          <internalNodes>
            0 -1 443 -2.6273868978023529e-02</internalNodes>
          <leafValues>
            3.2467836141586304e-01 -1.2223434448242188e-01</leafValues></_>
        <_>
          <internalNodes>
            0 -1 219 3.7424753827508539e-05</internalNodes>
          <leafValues>
            -2.0389054715633392e-01 1.7450925707817078e-01</leafValues></_>
        <_>
          <internalNodes>
            0 -1 604 -8.0961392086464912e-05</internalNodes>
          <leafValues>
            1.4972636103630066e-01 -2.3553477227687836e-01</leafValues></_>
        <_>
          <internalNodes>
            0 -1 450 -3.0134474858641624e-02</internalNodes>
          <leafValues>
            -9.0263897180557251e-01 3.0919557437300682e-02</leafValues></_>
        <_>
          <internalNodes>
            0 -1 402 -2.4682808667421341e-02</internalNodes>
          <leafValues>
            3.0258795619010925e-01 -1.1915043741464615e-01</leafValues></_>
        <_>
          <internalNodes>
            0 -1 132 -2.2873662412166595e-02</internalNodes>
          <leafValues>
            -8.3736348152160645e-01 4.1532527655363083e-02</leafValues></_>
        <_>
          <internalNodes>
            0 -1 488 -2.3176505055744201e-04</internalNodes>
          <leafValues>
            -2.5411272048950195e-01 1.4118041098117828e-01</leafValues></_>
        <_>
          <internalNodes>
            0 -1 272 5.4468261078000069e-04</internalNodes>
          <leafValues>
            -1.7145045101642609e-01 1.9950588047504425e-01</leafValues></_>
        <_>
          <internalNodes>
            0 -1 423 1.5252729877829552e-02</internalNodes>
          <leafValues>
            -1.2893736362457275e-01 2.3711109161376953e-01</leafValues></_>
        <_>
          <internalNodes>
            0 -1 211 1.8688112497329712e-02</internalNodes>
          <leafValues>
            -1.5096081793308258e-01 2.2086413204669952e-01</leafValues></_>
        <_>
          <internalNodes>
            0 -1 374 -1.6069642733782530e-03</internalNodes>
          <leafValues>
            -3.6128017306327820e-01 9.4880342483520508e-02</leafValues></_>
        <_>
          <internalNodes>
            0 -1 263 -2.7518838644027710e-02</internalNodes>
          <leafValues>
            6.0833889245986938e-01 -6.1423800885677338e-02</leafValues></_>
        <_>
          <internalNodes>
            0 -1 493 -3.8175669033080339e-05</internalNodes>
          <leafValues>
            1.1646634340286255e-01 -2.8633722662925720e-01</leafValues></_>
        <_>
          <internalNodes>
            0 -1 534 -3.2463268144056201e-04</internalNodes>
          <leafValues>
            -2.5623631477355957e-01 1.3084411621093750e-01</leafValues></_>
        <_>
          <internalNodes>
            0 -1 147 -4.4813537597656250e-01</internalNodes>
          <leafValues>
            5.1407968997955322e-01 -7.4101559817790985e-02</leafValues></_>
        <_>
          <internalNodes>
            0 -1 172 2.8818886727094650e-02</internalNodes>
          <leafValues>
            -1.0513328760862350e-01 2.8115847706794739e-01</leafValues></_>
        <_>
          <internalNodes>
            0 -1 69 1.5912970993667841e-03</internalNodes>
          <leafValues>
            6.4119018614292145e-02 -4.5725196599960327e-01</leafValues></_>
        <_>
          <internalNodes>
            0 -1 152 -5.2154861390590668e-02</internalNodes>
          <leafValues>
            5.8677273988723755e-01 -5.2008491009473801e-02</leafValues></_>
        <_>
          <internalNodes>
            0 -1 483 6.8099056079518050e-05</internalNodes>
          <leafValues>
            -1.7622496187686920e-01 1.6166289150714874e-01</leafValues></_>
        <_>
          <internalNodes>
            0 -1 163 4.7188282012939453e-02</internalNodes>
          <leafValues>
            -1.1842253804206848e-01 2.9134500026702881e-01</leafValues></_>
        <_>
          <internalNodes>
            0 -1 302 2.8146520256996155e-02</internalNodes>
          <leafValues>
            -1.0746181756258011e-01 3.4205901622772217e-01</leafValues></_>
        <_>
          <internalNodes>
            0 -1 503 6.4421519637107849e-03</internalNodes>
          <leafValues>
            -1.5064190328121185e-01 2.5042450428009033e-01</leafValues></_>
        <_>
          <internalNodes>
            0 -1 424 -2.4057736620306969e-02</internalNodes>
          <leafValues>
            2.8524556756019592e-01 -1.3507196307182312e-01</leafValues></_>
        <_>
          <internalNodes>
            0 -1 330 -2.8178762644529343e-02</internalNodes>
          <leafValues>
            -9.1369783878326416e-01 3.8845751434564590e-02</leafValues></_>
        <_>
          <internalNodes>
            0 -1 584 5.7909127324819565e-02</internalNodes>
          <leafValues>
            4.5050546526908875e-02 -5.2646404504776001e-01</leafValues></_></weakClassifiers></_>
    <!-- stage 14 -->
    <_>
      <maxWeakCount>45</maxWeakCount>
      <stageThreshold>-1.1349782943725586e+00</stageThreshold>
      <weakClassifiers>
        <_>
          <internalNodes>
            0 -1 169 4.7889105975627899e-02</internalNodes>
          <leafValues>
            -2.1675977110862732e-01 3.8415840268135071e-01</leafValues></_>
        <_>
          <internalNodes>
            0 -1 560 -1.4256808906793594e-02</internalNodes>
          <leafValues>
            4.5216667652130127e-01 -1.5270091593265533e-01</leafValues></_>
        <_>
          <internalNodes>
            0 -1 591 6.0996105894446373e-03</internalNodes>
          <leafValues>
            -1.3599173724651337e-01 3.8484215736389160e-01</leafValues></_>
        <_>
          <internalNodes>
            0 -1 577 7.8163757279980928e-05</internalNodes>
          <leafValues>
            -2.9847091436386108e-01 1.7232543230056763e-01</leafValues></_>
        <_>
          <internalNodes>
            0 -1 33 5.5118000507354736e-01</internalNodes>
          <leafValues>
            5.3134869784116745e-02 -5.3852480649948120e-01</leafValues></_>
        <_>
          <internalNodes>
            0 -1 1 1.0212966008111835e-03</internalNodes>
          <leafValues>
            1.4132919907569885e-01 -2.8865981101989746e-01</leafValues></_>
        <_>
          <internalNodes>
            0 -1 526 -1.7360161989927292e-02</internalNodes>
          <leafValues>
            4.3348380923271179e-01 -8.6841009557247162e-02</leafValues></_>
        <_>
          <internalNodes>
            0 -1 332 -2.2011365741491318e-02</internalNodes>
          <leafValues>
            4.3026491999626160e-01 -8.9467465877532959e-02</leafValues></_>
        <_>
          <internalNodes>
            0 -1 385 1.2533145956695080e-02</internalNodes>
          <leafValues>
            -1.1034022271633148e-01 3.7757226824760437e-01</leafValues></_>
        <_>
          <internalNodes>
            0 -1 11 -3.3645525574684143e-02</internalNodes>
          <leafValues>
            1.2879309058189392e-01 -2.7417451143264771e-01</leafValues></_>
        <_>
          <internalNodes>
            0 -1 213 -4.7078732401132584e-02</internalNodes>
          <leafValues>
            4.2277503013610840e-01 -8.4291152656078339e-02</leafValues></_>
        <_>
          <internalNodes>
            0 -1 267 2.9643528163433075e-02</internalNodes>
          <leafValues>
            -1.3241741061210632e-01 2.8007909655570984e-01</leafValues></_>
        <_>
          <internalNodes>
            0 -1 59 -4.8908339813351631e-03</internalNodes>
          <leafValues>
            -2.3575998842716217e-01 1.5766663849353790e-01</leafValues></_>
        <_>
          <internalNodes>
            0 -1 154 2.8137248009443283e-03</internalNodes>
          <leafValues>
            -1.5117660164833069e-01 2.2594632208347321e-01</leafValues></_>
        <_>
          <internalNodes>
            0 -1 599 5.8563030324876308e-04</internalNodes>
          <leafValues>
            1.1292374879121780e-01 -3.2085776329040527e-01</leafValues></_>
        <_>
          <internalNodes>
            0 -1 3 -9.5327664166688919e-04</internalNodes>
          <leafValues>
            -3.9918196201324463e-01 7.5313575565814972e-02</leafValues></_>
        <_>
          <internalNodes>
            0 -1 37 6.2492657452821732e-03</internalNodes>
          <leafValues>
            -9.4612210988998413e-02 3.9738532900810242e-01</leafValues></_>
        <_>
          <internalNodes>
            0 -1 186 -6.9330206315498799e-05</internalNodes>
          <leafValues>
            1.7826211452484131e-01 -1.8025670945644379e-01</leafValues></_>
        <_>
          <internalNodes>
            0 -1 313 3.6413621273823082e-05</internalNodes>
          <leafValues>
            -1.9991204142570496e-01 1.6044265031814575e-01</leafValues></_>
        <_>
          <internalNodes>
            0 -1 617 -1.4015357010066509e-03</internalNodes>
          <leafValues>
            -2.8646558523178101e-01 1.0418082773685455e-01</leafValues></_>
        <_>
          <internalNodes>
            0 -1 26 2.1787530183792114e-01</internalNodes>
          <leafValues>
            4.3022010475397110e-02 -8.5823541879653931e-01</leafValues></_>
        <_>
          <internalNodes>
            0 -1 100 3.7605854868888855e-01</internalNodes>
          <leafValues>
            3.9048172533512115e-02 -5.5207532644271851e-01</leafValues></_>
        <_>
          <internalNodes>
            0 -1 514 -4.1588195599615574e-03</internalNodes>
          <leafValues>
            3.0956766009330750e-01 -9.6878871321678162e-02</leafValues></_>
        <_>
          <internalNodes>
            0 -1 572 1.8537989817559719e-03</internalNodes>
          <leafValues>
            -1.4987461268901825e-01 1.9086846709251404e-01</leafValues></_>
        <_>
          <internalNodes>
            0 -1 614 8.7258301209658384e-04</internalNodes>
          <leafValues>
            6.0166466981172562e-02 -4.5645591616630554e-01</leafValues></_>
        <_>
          <internalNodes>
            0 -1 23 -3.8218998908996582e-01</internalNodes>
          <leafValues>
            3.8975989818572998e-01 -8.0230906605720520e-02</leafValues></_>
        <_>
          <internalNodes>
            0 -1 378 -2.0592971122823656e-04</internalNodes>
          <leafValues>
            -2.1118077635765076e-01 1.3887843489646912e-01</leafValues></_>
        <_>
          <internalNodes>
            0 -1 337 1.5754083869978786e-03</internalNodes>
          <leafValues>
            -8.6816564202308655e-02 3.6306449770927429e-01</leafValues></_>
        <_>
          <internalNodes>
            0 -1 383 1.2250038795173168e-02</internalNodes>
          <leafValues>
            -1.3744674623012543e-01 2.3493011295795441e-01</leafValues></_>
        <_>
          <internalNodes>
            0 -1 92 -1.2177298776805401e-03</internalNodes>
          <leafValues>
            -5.1462262868881226e-01 6.6893130540847778e-02</leafValues></_>
        <_>
          <internalNodes>
            0 -1 268 -2.8173152357339859e-02</internalNodes>
          <leafValues>
            2.8595340251922607e-01 -1.2176541239023209e-01</leafValues></_>
        <_>
          <internalNodes>
            0 -1 202 1.3139893114566803e-01</internalNodes>
          <leafValues>
            -7.7373832464218140e-02 3.6680483818054199e-01</leafValues></_>
        <_>
          <internalNodes>
            0 -1 496 1.3212215853855014e-03</internalNodes>
          <leafValues>
            7.5657315552234650e-02 -4.1253614425659180e-01</leafValues></_>
        <_>
          <internalNodes>
            0 -1 527 1.4004372060298920e-02</internalNodes>
          <leafValues>
            -1.4400029182434082e-01 2.0285746455192566e-01</leafValues></_>
        <_>
          <internalNodes>
            0 -1 290 9.2154398560523987e-02</internalNodes>
          <leafValues>
            -1.2578259408473969e-01 2.3484216630458832e-01</leafValues></_>
        <_>
          <internalNodes>
            0 -1 457 -1.2963572225999087e-04</internalNodes>
          <leafValues>
            -2.4511656165122986e-01 1.3440294563770294e-01</leafValues></_>
        <_>
          <internalNodes>
            0 -1 235 4.5410445891320705e-03</internalNodes>
          <leafValues>
            -1.2604032456874847e-01 2.5106909871101379e-01</leafValues></_>
        <_>
          <internalNodes>
            0 -1 502 -2.1311399177648127e-04</internalNodes>
          <leafValues>
            -1.9267280399799347e-01 1.4462077617645264e-01</leafValues></_>
        <_>
          <internalNodes>
            0 -1 145 -1.8818609416484833e-02</internalNodes>
          <leafValues>
            6.6518986225128174e-01 -4.6190451830625534e-02</leafValues></_>
        <_>
          <internalNodes>
            0 -1 88 -9.0742549218703061e-05</internalNodes>
          <leafValues>
            1.6181959211826324e-01 -1.7162506282329559e-01</leafValues></_>
        <_>
          <internalNodes>
            0 -1 117 2.4832030758261681e-03</internalNodes>
          <leafValues>
            -1.1212907731533051e-01 2.6759827136993408e-01</leafValues></_>
        <_>
          <internalNodes>
            0 -1 324 -2.8388494625687599e-02</internalNodes>
          <leafValues>
            -1. 3.2901681959629059e-02</leafValues></_>
        <_>
          <internalNodes>
            0 -1 338 -2.2543995874002576e-04</internalNodes>
          <leafValues>
            -2.3375390470027924e-01 1.1691896617412567e-01</leafValues></_>
        <_>
          <internalNodes>
            0 -1 580 1.7488261219114065e-03</internalNodes>
          <leafValues>
            6.9101065397262573e-02 -3.9108356833457947e-01</leafValues></_>
        <_>
          <internalNodes>
            0 -1 470 3.4590240567922592e-02</internalNodes>
          <leafValues>
            -7.2915777564048767e-02 3.9002430438995361e-01</leafValues></_></weakClassifiers></_>
    <!-- stage 15 -->
    <_>
      <maxWeakCount>54</maxWeakCount>
      <stageThreshold>-1.2091854810714722e+00</stageThreshold>
      <weakClassifiers>
        <_>
          <internalNodes>
            0 -1 480 2.1909305825829506e-02</internalNodes>
          <leafValues>
            -2.9907974600791931e-01 2.6069518923759460e-01</leafValues></_>
        <_>
          <internalNodes>
            0 -1 76 -3.2578036189079285e-03</internalNodes>
          <leafValues>
            1.6785351932048798e-01 -3.7394058704376221e-01</leafValues></_>
        <_>
          <internalNodes>
            0 -1 509 -1.4253295958042145e-03</internalNodes>
          <leafValues>
            2.7735245227813721e-01 -1.8120446801185608e-01</leafValues></_>
        <_>
          <internalNodes>
            0 -1 83 -1.7717399168759584e-03</internalNodes>
          <leafValues>
            -4.2704814672470093e-01 1.5470501780509949e-01</leafValues></_>
        <_>
          <internalNodes>
            0 -1 627 -9.8557514138519764e-04</internalNodes>
          <leafValues>
            -4.2548647522926331e-01 6.4045555889606476e-02</leafValues></_>
        <_>
          <internalNodes>
            0 -1 234 -2.0109834149479866e-03</internalNodes>
          <leafValues>
            -3.2760691642761230e-01 1.2336512655019760e-01</leafValues></_>
        <_>
          <internalNodes>
            0 -1 567 2.7616973966360092e-03</internalNodes>
          <leafValues>
            -1.5656754374504089e-01 2.4121181666851044e-01</leafValues></_>
        <_>
          <internalNodes>
            0 -1 462 3.6539979191729799e-05</internalNodes>
          <leafValues>
            -2.2100967168807983e-01 1.5428991615772247e-01</leafValues></_>
        <_>
          <internalNodes>
            0 -1 95 3.1378580024465919e-04</internalNodes>
          <leafValues>
            1.0053424537181854e-01 -2.7396982908248901e-01</leafValues></_>
        <_>
          <internalNodes>
            0 -1 260 -6.4144194126129150e-02</internalNodes>
          <leafValues>
            4.5623967051506042e-01 -6.2968350946903229e-02</leafValues></_>
        <_>
          <internalNodes>
            0 -1 271 -3.8954385672695935e-04</internalNodes>
          <leafValues>
            1.4310787618160248e-01 -2.4135534465312958e-01</leafValues></_>
        <_>
          <internalNodes>
            0 -1 320 -4.5294392853975296e-02</internalNodes>
          <leafValues>
            4.6720063686370850e-01 -7.5036212801933289e-02</leafValues></_>
        <_>
          <internalNodes>
            0 -1 497 7.2586131864227355e-05</internalNodes>
          <leafValues>
            -1.8585270643234253e-01 1.8008828163146973e-01</leafValues></_>
        <_>
          <internalNodes>
            0 -1 461 1.2313353363424540e-04</internalNodes>
          <leafValues>
            1.0053286701440811e-01 -3.3391034603118896e-01</leafValues></_>
        <_>
          <internalNodes>
            0 -1 461 -1.9494385924190283e-03</internalNodes>
          <leafValues>
            -3.1054922938346863e-01 1.0188151150941849e-01</leafValues></_>
        <_>
          <internalNodes>
            0 -1 34 6.0474354028701782e-01</internalNodes>
          <leafValues>
            7.8890547156333923e-02 -3.9800077676773071e-01</leafValues></_>
        <_>
          <internalNodes>
            0 -1 533 -3.6539979191729799e-05</internalNodes>
          <leafValues>
            1.2094727158546448e-01 -2.8112319111824036e-01</leafValues></_>
        <_>
          <internalNodes>
            0 -1 321 -1.1775590246543288e-04</internalNodes>
          <leafValues>
            -2.7027043700218201e-01 1.2618237733840942e-01</leafValues></_>
        <_>
          <internalNodes>
            0 -1 472 -1.1560494021978229e-04</internalNodes>
          <leafValues>
            -2.0112766325473785e-01 1.5573382377624512e-01</leafValues></_>
        <_>
          <internalNodes>
            0 -1 439 3.8466967642307281e-02</internalNodes>
          <leafValues>
            4.2093630880117416e-02 -7.9518359899520874e-01</leafValues></_>
        <_>
          <internalNodes>
            0 -1 264 -4.1413004510104656e-03</internalNodes>
          <leafValues>
            -5.1248145103454590e-01 4.4825851917266846e-02</leafValues></_>
        <_>
          <internalNodes>
            0 -1 314 -6.3299490138888359e-03</internalNodes>
          <leafValues>
            3.0199086666107178e-01 -9.4757623970508575e-02</leafValues></_>
        <_>
          <internalNodes>
            0 -1 331 -8.7759166490286589e-04</internalNodes>
          <leafValues>
            -3.2030215859413147e-01 9.4800285995006561e-02</leafValues></_>
        <_>
          <internalNodes>
            0 -1 363 3.8354516029357910e-02</internalNodes>
          <leafValues>
            -1.0662953555583954e-01 2.9375740885734558e-01</leafValues></_>
        <_>
          <internalNodes>
            0 -1 541 -6.3688508234918118e-03</internalNodes>
          <leafValues>
            -6.5930891036987305e-01 5.2576176822185516e-02</leafValues></_>
        <_>
          <internalNodes>
            0 -1 264 1.8451415235176682e-03</internalNodes>
          <leafValues>
            7.5910121202468872e-02 -3.7407287955284119e-01</leafValues></_>
        <_>
          <internalNodes>
            0 -1 72 7.9126730561256409e-03</internalNodes>
          <leafValues>
            -9.6468195319175720e-02 3.2827425003051758e-01</leafValues></_>
        <_>
          <internalNodes>
            0 -1 475 -5.8919638395309448e-03</internalNodes>
          <leafValues>
            -6.5648347139358521e-01 4.6678870916366577e-02</leafValues></_>
        <_>
          <internalNodes>
            0 -1 205 -5.6345146149396896e-02</internalNodes>
          <leafValues>
            4.0788942575454712e-01 -7.3042146861553192e-02</leafValues></_>
        <_>
          <internalNodes>
            0 -1 455 -2.6754798367619514e-02</internalNodes>
          <leafValues>
            -8.7133151292800903e-01 4.1960295289754868e-02</leafValues></_>
        <_>
          <internalNodes>
            0 -1 409 2.9626807197928429e-02</internalNodes>
          <leafValues>
            -1.3879334926605225e-01 2.2371006011962891e-01</leafValues></_>
        <_>
          <internalNodes>
            0 -1 74 -5.3010345436632633e-03</internalNodes>
          <leafValues>
            2.6488602161407471e-01 -1.2402587383985519e-01</leafValues></_>
        <_>
          <internalNodes>
            0 -1 82 -3.1397260725498199e-02</internalNodes>
          <leafValues>
            -9.2793786525726318e-01 4.0053971111774445e-02</leafValues></_>
        <_>
          <internalNodes>
            0 -1 318 -5.3376471623778343e-04</internalNodes>
          <leafValues>
            -2.9782772064208984e-01 8.5460476577281952e-02</leafValues></_>
        <_>
          <internalNodes>
            0 -1 323 6.3174031674861908e-04</internalNodes>
          <leafValues>
            -1.5064804255962372e-01 1.6366373002529144e-01</leafValues></_>
        <_>
          <internalNodes>
            0 -1 281 3.6655415897257626e-05</internalNodes>
          <leafValues>
            -1.8492752313613892e-01 1.5897934138774872e-01</leafValues></_>
        <_>
          <internalNodes>
            0 -1 473 7.8837078763172030e-04</internalNodes>
          <leafValues>
            8.5651785135269165e-02 -3.4151199460029602e-01</leafValues></_>
        <_>
          <internalNodes>
            0 -1 84 -3.1176779419183731e-02</internalNodes>
          <leafValues>
            -8.2386267185211182e-01 3.2540116459131241e-02</leafValues></_>
        <_>
          <internalNodes>
            0 -1 428 2.6645709294825792e-03</internalNodes>
          <leafValues>
            -7.3226012289524078e-02 3.6734238266944885e-01</leafValues></_>
        <_>
          <internalNodes>
            0 -1 471 2.1856613457202911e-02</internalNodes>
          <leafValues>
            -1.0370884835720062e-01 2.6831156015396118e-01</leafValues></_>
        <_>
          <internalNodes>
            0 -1 474 -5.8516702847555280e-04</internalNodes>
          <leafValues>
            -3.3198040723800659e-01 9.0237811207771301e-02</leafValues></_>
        <_>
          <internalNodes>
            0 -1 306 -8.4191525820642710e-04</internalNodes>
          <leafValues>
            -2.2128474712371826e-01 1.1117967963218689e-01</leafValues></_>
        <_>
          <internalNodes>
